<?xml version="1.0"?>
<BinaryTree boostWeight="1.0000000000000000e+00" itree="168" type="DecisionTree">
      <Node Cut="1.0190000000000000e+03" IVar="10" NCoef="0" cType="1" depth="0" nType="0" pos="s" purity="0.0000000000000000e+00" res="0.0000000000000000e+00" rms="0.0000000000000000e+00">
        <Node Cut="1.9900000000000000e+02" IVar="11" NCoef="0" cType="1" depth="1" nType="0" pos="l" purity="0.0000000000000000e+00" res="-2.8006235879729502e-05" rms="-nan">
          <Node Cut="1.1000000000000000e+01" IVar="4" NCoef="0" cType="1" depth="2" nType="0" pos="l" purity="0.0000000000000000e+00" res="0.0000000000000000e+00" rms="0.0000000000000000e+00">
            <Node Cut="5.5000000000000000e+01" IVar="7" NCoef="0" cType="1" depth="3" nType="0" pos="l" purity="0.0000000000000000e+00" res="0.0000000000000000e+00" rms="0.0000000000000000e+00">
              <Node Cut="5.6000000000000000e+01" IVar="3" NCoef="0" cType="1" depth="4" nType="0" pos="l" purity="0.0000000000000000e+00" res="8.6532580852508545e-01" rms="-nan">
                <Node Cut="0.0000000000000000e+00" IVar="-1" NCoef="0" cType="1" depth="5" nType="-99" pos="l" purity="0.0000000000000000e+00" res="7.5228813329886179e-06" rms="3.0098417401313782e-01" />
                <Node Cut="0.0000000000000000e+00" IVar="-1" NCoef="0" cType="1" depth="5" nType="-99" pos="r" purity="0.0000000000000000e+00" res="9.5220897346735001e-03" rms="5.7291930913925171e-01" />
              </Node>
              <Node Cut="1.0100000000000000e+02" IVar="5" NCoef="0" cType="1" depth="4" nType="0" pos="r" purity="0.0000000000000000e+00" res="4.5178774744272232e-03" rms="7.0834383368492126e-02">
                <Node Cut="0.0000000000000000e+00" IVar="-1" NCoef="0" cType="1" depth="5" nType="-99" pos="l" purity="0.0000000000000000e+00" res="8.0837691202759743e-03" rms="4.2366826534271240e-01" />
                <Node Cut="0.0000000000000000e+00" IVar="-1" NCoef="0" cType="1" depth="5" nType="-99" pos="r" purity="0.0000000000000000e+00" res="-4.8666959628462791e-03" rms="2.7902048826217651e-01" />
              </Node>
            </Node>
            <Node Cut="2.6000000000000000e+01" IVar="7" NCoef="0" cType="1" depth="3" nType="0" pos="r" purity="0.0000000000000000e+00" res="-3.0274689197540283e-04" rms="-nan">
              <Node Cut="-6.9000000000000000e+01" IVar="5" NCoef="0" cType="1" depth="4" nType="0" pos="l" purity="0.0000000000000000e+00" res="5.8899633586406708e-05" rms="-nan">
                <Node Cut="0.0000000000000000e+00" IVar="-1" NCoef="0" cType="1" depth="5" nType="-99" pos="l" purity="0.0000000000000000e+00" res="1.6639377921819687e-02" rms="5.5175381898880005e-01" />
                <Node Cut="0.0000000000000000e+00" IVar="-1" NCoef="0" cType="1" depth="5" nType="-99" pos="r" purity="0.0000000000000000e+00" res="-2.6805163361132145e-03" rms="4.7457283735275269e-01" />
              </Node>
              <Node Cut="2.0000000000000000e+00" IVar="14" NCoef="0" cType="1" depth="4" nType="0" pos="r" purity="0.0000000000000000e+00" res="6.8747615441679955e-03" rms="3.0087244510650635e-01">
                <Node Cut="0.0000000000000000e+00" IVar="-1" NCoef="0" cType="1" depth="5" nType="-99" pos="l" purity="0.0000000000000000e+00" res="-9.4898534007370472e-04" rms="3.0258825421333313e-01" />
                <Node Cut="0.0000000000000000e+00" IVar="-1" NCoef="0" cType="1" depth="5" nType="-99" pos="r" purity="0.0000000000000000e+00" res="1.5863149892538786e-03" rms="3.1512108445167542e-01" />
              </Node>
            </Node>
          </Node>
          <Node Cut="3.6000000000000000e+01" IVar="2" NCoef="0" cType="1" depth="2" nType="0" pos="r" purity="0.0000000000000000e+00" res="1.7405016347765923e-02" rms="1.3656204938888550e-01">
            <Node Cut="1.0000000000000000e+00" IVar="0" NCoef="0" cType="1" depth="3" nType="0" pos="l" purity="0.0000000000000000e+00" res="9.0458452701568604e-02" rms="4.1213425993919373e-01">
              <Node Cut="1.6000000000000000e+02" IVar="7" NCoef="0" cType="1" depth="4" nType="0" pos="l" purity="0.0000000000000000e+00" res="2.5201851129531860e-01" rms="4.4488924741744995e-01">
                <Node Cut="0.0000000000000000e+00" IVar="-1" NCoef="0" cType="1" depth="5" nType="-99" pos="l" purity="0.0000000000000000e+00" res="1.7968650907278061e-02" rms="4.0363410115242004e-01" />
                <Node Cut="0.0000000000000000e+00" IVar="-1" NCoef="0" cType="1" depth="5" nType="-99" pos="r" purity="0.0000000000000000e+00" res="5.0360042601823807e-02" rms="3.8443389534950256e-01" />
              </Node>
              <Node Cut="3.0000000000000000e+00" IVar="14" NCoef="0" cType="1" depth="4" nType="0" pos="r" purity="0.0000000000000000e+00" res="1.2636857107281685e-02" rms="3.3401927351951599e-01">
                <Node Cut="0.0000000000000000e+00" IVar="-1" NCoef="0" cType="1" depth="5" nType="-99" pos="l" purity="0.0000000000000000e+00" res="1.3580039376392961e-03" rms="3.8521143794059753e-01" />
                <Node Cut="0.0000000000000000e+00" IVar="-1" NCoef="0" cType="1" depth="5" nType="-99" pos="r" purity="0.0000000000000000e+00" res="3.3596854656934738e-02" rms="4.2211899161338806e-01" />
              </Node>
            </Node>
            <Node Cut="1.1000000000000000e+01" IVar="0" NCoef="0" cType="1" depth="3" nType="0" pos="r" purity="0.0000000000000000e+00" res="-7.1927778422832489e-02" rms="4.0602532029151917e-01">
              <Node Cut="5.0500000000000000e+02" IVar="10" NCoef="0" cType="1" depth="4" nType="0" pos="l" purity="0.0000000000000000e+00" res="4.4283263385295868e-02" rms="2.0899249613285065e-01">
                <Node Cut="0.0000000000000000e+00" IVar="-1" NCoef="0" cType="1" depth="5" nType="-99" pos="l" purity="0.0000000000000000e+00" res="2.3016165941953659e-02" rms="4.3390268087387085e-01" />
                <Node Cut="0.0000000000000000e+00" IVar="-1" NCoef="0" cType="1" depth="5" nType="-99" pos="r" purity="0.0000000000000000e+00" res="-7.7729034237563610e-03" rms="4.0104350447654724e-01" />
              </Node>
              <Node Cut="6.1000000000000000e+01" IVar="2" NCoef="0" cType="1" depth="4" nType="0" pos="r" purity="0.0000000000000000e+00" res="4.1531395912170410e+00" rms="-nan">
                <Node Cut="0.0000000000000000e+00" IVar="-1" NCoef="0" cType="1" depth="5" nType="-99" pos="l" purity="0.0000000000000000e+00" res="1.0889424942433834e-02" rms="4.9571827054023743e-01" />
                <Node Cut="0.0000000000000000e+00" IVar="-1" NCoef="0" cType="1" depth="5" nType="-99" pos="r" purity="0.0000000000000000e+00" res="6.1892203986644745e-02" rms="6.9047462940216064e-01" />
              </Node>
            </Node>
          </Node>
        </Node>
        <Node Cut="1.0000000000000000e+00" IVar="14" NCoef="0" cType="1" depth="1" nType="0" pos="r" purity="0.0000000000000000e+00" res="-1.8808894092217088e-03" rms="1.7816507816314697e-01">
          <Node Cut="3.0000000000000000e+00" IVar="0" NCoef="0" cType="1" depth="2" nType="0" pos="l" purity="0.0000000000000000e+00" res="2.5827384088188410e-03" rms="1.6308185458183289e-01">
            <Node Cut="3.1800000000000000e+02" IVar="5" NCoef="0" cType="1" depth="3" nType="0" pos="l" purity="0.0000000000000000e+00" res="-2.3876750492490828e-04" rms="-nan">
              <Node Cut="2.8900000000000000e+02" IVar="11" NCoef="0" cType="1" depth="4" nType="0" pos="l" purity="0.0000000000000000e+00" res="4.9960009753704071e-02" rms="2.1880790591239929e-01">
                <Node Cut="0.0000000000000000e+00" IVar="-1" NCoef="0" cType="1" depth="5" nType="-99" pos="l" purity="0.0000000000000000e+00" res="-2.2790476214140654e-03" rms="2.1734330058097839e-01" />
                <Node Cut="0.0000000000000000e+00" IVar="-1" NCoef="0" cType="1" depth="5" nType="-99" pos="r" purity="0.0000000000000000e+00" res="-1.6366083174943924e-02" rms="2.8074133396148682e-01" />
              </Node>
              <Node Cut="7.0000000000000000e+00" IVar="7" NCoef="0" cType="1" depth="4" nType="0" pos="r" purity="0.0000000000000000e+00" res="-7.9119775909930468e-04" rms="-nan">
                <Node Cut="0.0000000000000000e+00" IVar="-1" NCoef="0" cType="1" depth="5" nType="-99" pos="l" purity="0.0000000000000000e+00" res="1.1458083463367075e-04" rms="1.5773700177669525e-01" />
                <Node Cut="0.0000000000000000e+00" IVar="-1" NCoef="0" cType="1" depth="5" nType="-99" pos="r" purity="0.0000000000000000e+00" res="1.7451163148507476e-03" rms="1.8973501026630402e-01" />
              </Node>
            </Node>
            <Node Cut="3.3700000000000000e+02" IVar="2" NCoef="0" cType="1" depth="3" nType="0" pos="r" purity="0.0000000000000000e+00" res="1.1362935416400433e-02" rms="1.0640930384397507e-01">
              <Node Cut="1.1000000000000000e+01" IVar="12" NCoef="0" cType="1" depth="4" nType="0" pos="l" purity="0.0000000000000000e+00" res="3.3278223127126694e-02" rms="1.8019148707389832e-01">
                <Node Cut="0.0000000000000000e+00" IVar="-1" NCoef="0" cType="1" depth="5" nType="-99" pos="l" purity="0.0000000000000000e+00" res="3.5154980421066284e-01" rms="0.0000000000000000e+00" />
                <Node Cut="0.0000000000000000e+00" IVar="-1" NCoef="0" cType="1" depth="5" nType="-99" pos="r" purity="0.0000000000000000e+00" res="6.1192928114905953e-04" rms="1.4420880377292633e-01" />
              </Node>
              <Node Cut="-6.7000000000000000e+01" IVar="4" NCoef="0" cType="1" depth="4" nType="0" pos="r" purity="0.0000000000000000e+00" res="8.1350962864235044e-04" rms="3.0658746138215065e-02">
                <Node Cut="0.0000000000000000e+00" IVar="-1" NCoef="0" cType="1" depth="5" nType="-99" pos="l" purity="0.0000000000000000e+00" res="3.0935739050619304e-04" rms="1.2692788243293762e-01" />
                <Node Cut="0.0000000000000000e+00" IVar="-1" NCoef="0" cType="1" depth="5" nType="-99" pos="r" purity="0.0000000000000000e+00" res="-1.8899623537436128e-03" rms="1.3828794658184052e-01" />
              </Node>
            </Node>
          </Node>
          <Node Cut="2.6000000000000000e+01" IVar="4" NCoef="0" cType="1" depth="2" nType="0" pos="r" purity="0.0000000000000000e+00" res="-8.3145307144150138e-05" rms="1.6486791893839836e-02">
            <Node Cut="2.1000000000000000e+01" IVar="12" NCoef="0" cType="1" depth="3" nType="0" pos="l" purity="0.0000000000000000e+00" res="5.1294327713549137e-03" rms="7.1824416518211365e-02">
              <Node Cut="3.0000000000000000e+00" IVar="19" NCoef="0" cType="1" depth="4" nType="0" pos="l" purity="0.0000000000000000e+00" res="1.3275505602359772e-01" rms="7.2300279140472412e-01">
                <Node Cut="0.0000000000000000e+00" IVar="-1" NCoef="0" cType="1" depth="5" nType="-99" pos="l" purity="0.0000000000000000e+00" res="1.4111836254596710e-01" rms="1.1528888940811157e+00" />
                <Node Cut="0.0000000000000000e+00" IVar="-1" NCoef="0" cType="1" depth="5" nType="-99" pos="r" purity="0.0000000000000000e+00" res="1.2160300277173519e-02" rms="7.3168355226516724e-01" />
              </Node>
              <Node Cut="1.1000000000000000e+01" IVar="4" NCoef="0" cType="1" depth="4" nType="0" pos="r" purity="0.0000000000000000e+00" res="5.7699822355061769e-04" rms="2.7345476672053337e-02">
                <Node Cut="0.0000000000000000e+00" IVar="-1" NCoef="0" cType="1" depth="5" nType="-99" pos="l" purity="0.0000000000000000e+00" res="-9.0155692305415869e-04" rms="1.7864631116390228e-01" />
                <Node Cut="0.0000000000000000e+00" IVar="-1" NCoef="0" cType="1" depth="5" nType="-99" pos="r" purity="0.0000000000000000e+00" res="-2.2984994575381279e-03" rms="2.2086445987224579e-01" />
              </Node>
            </Node>
            <Node Cut="1.8200000000000000e+02" IVar="2" NCoef="0" cType="1" depth="3" nType="0" pos="r" purity="0.0000000000000000e+00" res="7.2106550214812160e-04" rms="3.0821671709418297e-02">
              <Node Cut="4.7000000000000000e+01" IVar="4" NCoef="0" cType="1" depth="4" nType="0" pos="l" purity="0.0000000000000000e+00" res="-2.8151741623878479e-01" rms="-nan">
                <Node Cut="0.0000000000000000e+00" IVar="-1" NCoef="0" cType="1" depth="5" nType="-99" pos="l" purity="0.0000000000000000e+00" res="-5.0847660750150681e-03" rms="3.4131079912185669e-01" />
                <Node Cut="0.0000000000000000e+00" IVar="-1" NCoef="0" cType="1" depth="5" nType="-99" pos="r" purity="0.0000000000000000e+00" res="-4.1037168353796005e-02" rms="4.1585469245910645e-01" />
              </Node>
              <Node Cut="1.3500000000000000e+02" IVar="12" NCoef="0" cType="1" depth="4" nType="0" pos="r" purity="0.0000000000000000e+00" res="3.1501846387982368e-03" rms="-nan">
                <Node Cut="0.0000000000000000e+00" IVar="-1" NCoef="0" cType="1" depth="5" nType="-99" pos="l" purity="0.0000000000000000e+00" res="-8.3431825041770935e-03" rms="3.0944013595581055e-01" />
                <Node Cut="0.0000000000000000e+00" IVar="-1" NCoef="0" cType="1" depth="5" nType="-99" pos="r" purity="0.0000000000000000e+00" res="8.4813695866614580e-04" rms="2.4764953553676605e-01" />
              </Node>
            </Node>
          </Node>
        </Node>
      </Node>
    </BinaryTree>
    