<?xml version="1.0"?>
<BinaryTree boostWeight="1.0000000000000000e+00" itree="363" type="DecisionTree">
      <Node Cut="5.6200000000000000e+02" IVar="4" NCoef="0" cType="1" depth="0" nType="0" pos="s" purity="0.0000000000000000e+00" res="4.8858398199081421e-01" rms="5.6179386377334595e-01">
        <Node Cut="5.2800000000000000e+02" IVar="4" NCoef="0" cType="1" depth="1" nType="0" pos="l" purity="0.0000000000000000e+00" res="3.7300565838813782e-01" rms="5.4809260368347168e-01">
          <Node Cut="5.2600000000000000e+02" IVar="4" NCoef="0" cType="1" depth="2" nType="0" pos="l" purity="0.0000000000000000e+00" res="2.8732410073280334e-01" rms="5.3406208753585815e-01">
            <Node Cut="5.1900000000000000e+02" IVar="4" NCoef="0" cType="1" depth="3" nType="0" pos="l" purity="0.0000000000000000e+00" res="2.8276619315147400e-01" rms="5.2514958381652832e-01">
              <Node Cut="9.2000000000000000e+01" IVar="3" NCoef="0" cType="1" depth="4" nType="0" pos="l" purity="0.0000000000000000e+00" res="0.0000000000000000e+00" rms="0.0000000000000000e+00">
                <Node Cut="0.0000000000000000e+00" IVar="-1" NCoef="0" cType="1" depth="5" nType="-99" pos="l" purity="0.0000000000000000e+00" res="7.0755509113951121e-06" rms="3.4240329265594482e-01" />
                <Node Cut="0.0000000000000000e+00" IVar="-1" NCoef="0" cType="1" depth="5" nType="-99" pos="r" purity="0.0000000000000000e+00" res="-4.2456656228750944e-04" rms="4.3785732984542847e-01" />
              </Node>
              <Node Cut="1.0000000000000000e+00" IVar="6" NCoef="0" cType="1" depth="4" nType="0" pos="r" purity="0.0000000000000000e+00" res="-8.1026153638958931e-03" rms="1.2982758879661560e-01">
                <Node Cut="0.0000000000000000e+00" IVar="-1" NCoef="0" cType="1" depth="5" nType="-99" pos="l" purity="0.0000000000000000e+00" res="-2.2359932772815228e-03" rms="1.9466194510459900e-01" />
                <Node Cut="0.0000000000000000e+00" IVar="-1" NCoef="0" cType="1" depth="5" nType="-99" pos="r" purity="0.0000000000000000e+00" res="7.5974420178681612e-04" rms="1.6380165517330170e-01" />
              </Node>
            </Node>
            <Node Cut="1.0000000000000000e+00" IVar="6" NCoef="0" cType="1" depth="3" nType="0" pos="r" purity="0.0000000000000000e+00" res="1.5818599611520767e-02" rms="2.0355780422687531e-01">
              <Node Cut="0.0000000000000000e+00" IVar="7" NCoef="0" cType="1" depth="4" nType="0" pos="l" purity="0.0000000000000000e+00" res="0.0000000000000000e+00" rms="0.0000000000000000e+00">
                <Node Cut="0.0000000000000000e+00" IVar="-1" NCoef="0" cType="1" depth="5" nType="-99" pos="l" purity="0.0000000000000000e+00" res="-3.3439279650337994e-04" rms="2.2857116162776947e-01" />
                <Node Cut="0.0000000000000000e+00" IVar="-1" NCoef="0" cType="1" depth="5" nType="-99" pos="r" purity="0.0000000000000000e+00" res="-6.8578911013901234e-03" rms="2.4463641643524170e-01" />
              </Node>
              <Node Cut="9.0000000000000000e+00" IVar="0" NCoef="0" cType="1" depth="4" nType="0" pos="r" purity="0.0000000000000000e+00" res="2.0893728360533714e-02" rms="2.1815724670886993e-01">
                <Node Cut="0.0000000000000000e+00" IVar="-1" NCoef="0" cType="1" depth="5" nType="-99" pos="l" purity="0.0000000000000000e+00" res="2.0751552656292915e-03" rms="2.1750824153423309e-01" />
                <Node Cut="0.0000000000000000e+00" IVar="-1" NCoef="0" cType="1" depth="5" nType="-99" pos="r" purity="0.0000000000000000e+00" res="2.0331454277038574e-01" rms="0.0000000000000000e+00" />
              </Node>
            </Node>
          </Node>
          <Node Cut="1.0000000000000000e+00" IVar="6" NCoef="0" cType="1" depth="2" nType="0" pos="r" purity="0.0000000000000000e+00" res="-5.6575350463390350e-03" rms="1.4572377502918243e-01">
            <Node Cut="-1.0000000000000000e+00" IVar="7" NCoef="0" cType="1" depth="3" nType="0" pos="l" purity="0.0000000000000000e+00" res="2.1914036478847265e-03" rms="1.9257700443267822e-01">
              <Node Cut="7.0000000000000000e+00" IVar="0" NCoef="0" cType="1" depth="4" nType="0" pos="l" purity="0.0000000000000000e+00" res="1.2342471629381180e-02" rms="1.8338516354560852e-01">
                <Node Cut="0.0000000000000000e+00" IVar="-1" NCoef="0" cType="1" depth="5" nType="-99" pos="l" purity="0.0000000000000000e+00" res="1.3914142036810517e-03" rms="1.8449549376964569e-01" />
                <Node Cut="0.0000000000000000e+00" IVar="-1" NCoef="0" cType="1" depth="5" nType="-99" pos="r" purity="0.0000000000000000e+00" res="-3.4574719611555338e-03" rms="1.3842560350894928e-01" />
              </Node>
              <Node Cut="6.9000000000000000e+01" IVar="3" NCoef="0" cType="1" depth="4" nType="0" pos="r" purity="0.0000000000000000e+00" res="0.0000000000000000e+00" rms="0.0000000000000000e+00">
                <Node Cut="0.0000000000000000e+00" IVar="-1" NCoef="0" cType="1" depth="5" nType="-99" pos="l" purity="0.0000000000000000e+00" res="-1.4406230766326189e-03" rms="1.8907164037227631e-01" />
                <Node Cut="0.0000000000000000e+00" IVar="-1" NCoef="0" cType="1" depth="5" nType="-99" pos="r" purity="0.0000000000000000e+00" res="4.2590266093611717e-04" rms="2.0103955268859863e-01" />
              </Node>
            </Node>
            <Node Cut="3.0000000000000000e+00" IVar="0" NCoef="0" cType="1" depth="3" nType="0" pos="r" purity="0.0000000000000000e+00" res="-1.6021199524402618e-02" rms="1.7598658800125122e-01">
              <Node Cut="3.0000000000000000e+00" IVar="8" NCoef="0" cType="1" depth="4" nType="0" pos="l" purity="0.0000000000000000e+00" res="0.0000000000000000e+00" rms="0.0000000000000000e+00">
                <Node Cut="0.0000000000000000e+00" IVar="-1" NCoef="0" cType="1" depth="5" nType="-99" pos="l" purity="0.0000000000000000e+00" res="-1.8156152218580246e-03" rms="1.8703442811965942e-01" />
                <Node Cut="0.0000000000000000e+00" IVar="-1" NCoef="0" cType="1" depth="5" nType="-99" pos="r" purity="0.0000000000000000e+00" res="-5.6253988295793533e-03" rms="1.8134030699729919e-01" />
              </Node>
              <Node Cut="5.0000000000000000e+00" IVar="0" NCoef="0" cType="1" depth="4" nType="0" pos="r" purity="0.0000000000000000e+00" res="-3.6987438797950745e-03" rms="1.6663044691085815e-01">
                <Node Cut="0.0000000000000000e+00" IVar="-1" NCoef="0" cType="1" depth="5" nType="-99" pos="l" purity="0.0000000000000000e+00" res="-1.2386776506900787e-03" rms="1.7401531338691711e-01" />
                <Node Cut="0.0000000000000000e+00" IVar="-1" NCoef="0" cType="1" depth="5" nType="-99" pos="r" purity="0.0000000000000000e+00" res="1.0717045515775681e-03" rms="1.5250754356384277e-01" />
              </Node>
            </Node>
          </Node>
        </Node>
        <Node Cut="5.0000000000000000e+00" IVar="8" NCoef="0" cType="1" depth="1" nType="0" pos="r" purity="0.0000000000000000e+00" res="3.3012880012392998e-03" rms="2.0754325389862061e-01">
          <Node Cut="4.0000000000000000e+00" IVar="0" NCoef="0" cType="1" depth="2" nType="0" pos="l" purity="0.0000000000000000e+00" res="1.1918043019250035e-03" rms="2.0434431731700897e-01">
            <Node Cut="1.0000000000000000e+00" IVar="6" NCoef="0" cType="1" depth="3" nType="0" pos="l" purity="0.0000000000000000e+00" res="2.2594586480408907e-03" rms="1.9045715034008026e-01">
              <Node Cut="1.0000000000000000e+00" IVar="7" NCoef="0" cType="1" depth="4" nType="0" pos="l" purity="0.0000000000000000e+00" res="4.3738126754760742e-02" rms="-nan">
                <Node Cut="0.0000000000000000e+00" IVar="-1" NCoef="0" cType="1" depth="5" nType="-99" pos="l" purity="0.0000000000000000e+00" res="-2.3719493765383959e-03" rms="2.1377184987068176e-01" />
                <Node Cut="0.0000000000000000e+00" IVar="-1" NCoef="0" cType="1" depth="5" nType="-99" pos="r" purity="0.0000000000000000e+00" res="1.4097257517278194e-03" rms="2.0126104354858398e-01" />
              </Node>
              <Node Cut="3.0000000000000000e+00" IVar="7" NCoef="0" cType="1" depth="4" nType="0" pos="r" purity="0.0000000000000000e+00" res="0.0000000000000000e+00" rms="0.0000000000000000e+00">
                <Node Cut="0.0000000000000000e+00" IVar="-1" NCoef="0" cType="1" depth="5" nType="-99" pos="l" purity="0.0000000000000000e+00" res="7.0701277581974864e-04" rms="2.0531637966632843e-01" />
                <Node Cut="0.0000000000000000e+00" IVar="-1" NCoef="0" cType="1" depth="5" nType="-99" pos="r" purity="0.0000000000000000e+00" res="-2.9078167863190174e-03" rms="1.8083165585994720e-01" />
              </Node>
            </Node>
            <Node Cut="4.2800000000000000e+02" IVar="2" NCoef="0" cType="1" depth="3" nType="0" pos="r" purity="0.0000000000000000e+00" res="-6.4534246921539307e-02" rms="-nan">
              <Node Cut="2.0000000000000000e+00" IVar="7" NCoef="0" cType="1" depth="4" nType="0" pos="l" purity="0.0000000000000000e+00" res="-3.3995255827903748e-02" rms="2.0784381031990051e-01">
                <Node Cut="0.0000000000000000e+00" IVar="-1" NCoef="0" cType="1" depth="5" nType="-99" pos="l" purity="0.0000000000000000e+00" res="-5.2299960516393185e-03" rms="2.0501331984996796e-01" />
                <Node Cut="0.0000000000000000e+00" IVar="-1" NCoef="0" cType="1" depth="5" nType="-99" pos="r" purity="0.0000000000000000e+00" res="1.2029582867398858e-03" rms="2.0778971910476685e-01" />
              </Node>
              <Node Cut="-1.0000000000000000e+00" IVar="7" NCoef="0" cType="1" depth="4" nType="0" pos="r" purity="0.0000000000000000e+00" res="0.0000000000000000e+00" rms="0.0000000000000000e+00">
                <Node Cut="0.0000000000000000e+00" IVar="-1" NCoef="0" cType="1" depth="5" nType="-99" pos="l" purity="0.0000000000000000e+00" res="1.2123436899855733e-03" rms="1.8104076385498047e-01" />
                <Node Cut="0.0000000000000000e+00" IVar="-1" NCoef="0" cType="1" depth="5" nType="-99" pos="r" purity="0.0000000000000000e+00" res="-1.8084214534610510e-03" rms="1.7631717026233673e-01" />
              </Node>
            </Node>
          </Node>
          <Node Cut="3.0000000000000000e+00" IVar="0" NCoef="0" cType="1" depth="2" nType="0" pos="r" purity="0.0000000000000000e+00" res="1.6622036695480347e-02" rms="2.2642624378204346e-01">
            <Node Cut="2.0000000000000000e+00" IVar="7" NCoef="0" cType="1" depth="3" nType="0" pos="l" purity="0.0000000000000000e+00" res="0.0000000000000000e+00" rms="0.0000000000000000e+00">
              <Node Cut="2.0000000000000000e+00" IVar="0" NCoef="0" cType="1" depth="4" nType="0" pos="l" purity="0.0000000000000000e+00" res="6.2740212306380272e-03" rms="2.2740234434604645e-01">
                <Node Cut="0.0000000000000000e+00" IVar="-1" NCoef="0" cType="1" depth="5" nType="-99" pos="l" purity="0.0000000000000000e+00" res="2.8646963182836771e-03" rms="2.2474607825279236e-01" />
                <Node Cut="0.0000000000000000e+00" IVar="-1" NCoef="0" cType="1" depth="5" nType="-99" pos="r" purity="0.0000000000000000e+00" res="-1.5418813563883305e-03" rms="2.2786055505275726e-01" />
              </Node>
              <Node Cut="2.0000000000000000e+00" IVar="0" NCoef="0" cType="1" depth="4" nType="0" pos="r" purity="0.0000000000000000e+00" res="4.3967682868242264e-02" rms="2.2781352698802948e-01">
                <Node Cut="0.0000000000000000e+00" IVar="-1" NCoef="0" cType="1" depth="5" nType="-99" pos="l" purity="0.0000000000000000e+00" res="-7.2819745400920510e-04" rms="2.4135583639144897e-01" />
                <Node Cut="0.0000000000000000e+00" IVar="-1" NCoef="0" cType="1" depth="5" nType="-99" pos="r" purity="0.0000000000000000e+00" res="9.4554824754595757e-03" rms="2.0118616521358490e-01" />
              </Node>
            </Node>
            <Node Cut="4.0000000000000000e+00" IVar="0" NCoef="0" cType="1" depth="3" nType="0" pos="r" purity="0.0000000000000000e+00" res="3.4184750169515610e-02" rms="2.2083631157875061e-01">
              <Node Cut="4.2800000000000000e+02" IVar="2" NCoef="0" cType="1" depth="4" nType="0" pos="l" purity="0.0000000000000000e+00" res="0.0000000000000000e+00" rms="5.3715717792510986e-01">
                <Node Cut="0.0000000000000000e+00" IVar="-1" NCoef="0" cType="1" depth="5" nType="-99" pos="l" purity="0.0000000000000000e+00" res="1.0846880264580250e-02" rms="2.2015361487865448e-01" />
                <Node Cut="0.0000000000000000e+00" IVar="-1" NCoef="0" cType="1" depth="5" nType="-99" pos="r" purity="0.0000000000000000e+00" res="2.6040202938020229e-03" rms="2.1981498599052429e-01" />
              </Node>
              <Node Cut="1.0000000000000000e+00" IVar="6" NCoef="0" cType="1" depth="4" nType="0" pos="r" purity="0.0000000000000000e+00" res="1.0650088079273701e-03" rms="2.0893046259880066e-01">
                <Node Cut="0.0000000000000000e+00" IVar="-1" NCoef="0" cType="1" depth="5" nType="-99" pos="l" purity="0.0000000000000000e+00" res="1.1229684576392174e-02" rms="3.6009129881858826e-01" />
                <Node Cut="0.0000000000000000e+00" IVar="-1" NCoef="0" cType="1" depth="5" nType="-99" pos="r" purity="0.0000000000000000e+00" res="-1.4845647383481264e-03" rms="1.8239924311637878e-01" />
              </Node>
            </Node>
          </Node>
        </Node>
      </Node>
    </BinaryTree>
    