<?xml version="1.0"?>
<BinaryTree boostWeight="1.0000000000000000e+00" itree="236" type="DecisionTree">
      <Node Cut="5.0000000000000000e+00" IVar="0" NCoef="0" cType="1" depth="0" nType="0" pos="s" purity="0.0000000000000000e+00" res="-9.8687811395103964e-12" rms="3.5675293207168579e-01">
        <Node Cut="4.8000000000000000e+01" IVar="2" NCoef="0" cType="1" depth="1" nType="0" pos="l" purity="0.0000000000000000e+00" res="0.0000000000000000e+00" rms="0.0000000000000000e+00">
          <Node Cut="4.0000000000000000e+00" IVar="4" NCoef="0" cType="1" depth="2" nType="0" pos="l" purity="0.0000000000000000e+00" res="2.1133259870111942e-03" rms="4.6264842152595520e-02">
            <Node Cut="2.4000000000000000e+01" IVar="3" NCoef="0" cType="1" depth="3" nType="0" pos="l" purity="0.0000000000000000e+00" res="0.0000000000000000e+00" rms="1.3121778964996338e+00">
              <Node Cut="2.0000000000000000e+00" IVar="8" NCoef="0" cType="1" depth="4" nType="0" pos="l" purity="0.0000000000000000e+00" res="4.7104433178901672e-01" rms="-nan">
                <Node Cut="0.0000000000000000e+00" IVar="-1" NCoef="0" cType="1" depth="5" nType="-99" pos="l" purity="0.0000000000000000e+00" res="-2.0797787234187126e-02" rms="8.3853793144226074e-01" />
                <Node Cut="0.0000000000000000e+00" IVar="-1" NCoef="0" cType="1" depth="5" nType="-99" pos="r" purity="0.0000000000000000e+00" res="5.1090825581923127e-04" rms="9.7385603189468384e-01" />
              </Node>
              <Node Cut="-1.0000000000000000e+00" IVar="7" NCoef="0" cType="1" depth="4" nType="0" pos="r" purity="0.0000000000000000e+00" res="2.9631718993186951e-01" rms="-nan">
                <Node Cut="0.0000000000000000e+00" IVar="-1" NCoef="0" cType="1" depth="5" nType="-99" pos="l" purity="0.0000000000000000e+00" res="5.8894686400890350e-02" rms="1.4659672975540161e+00" />
                <Node Cut="0.0000000000000000e+00" IVar="-1" NCoef="0" cType="1" depth="5" nType="-99" pos="r" purity="0.0000000000000000e+00" res="-5.7417433708906174e-03" rms="5.7416009902954102e-01" />
              </Node>
            </Node>
            <Node Cut="2.3000000000000000e+01" IVar="2" NCoef="0" cType="1" depth="3" nType="0" pos="r" purity="0.0000000000000000e+00" res="0.0000000000000000e+00" rms="0.0000000000000000e+00">
              <Node Cut="1.0000000000000000e+00" IVar="6" NCoef="0" cType="1" depth="4" nType="0" pos="l" purity="0.0000000000000000e+00" res="8.9122727513313293e-03" rms="5.6281799077987671e-01">
                <Node Cut="0.0000000000000000e+00" IVar="-1" NCoef="0" cType="1" depth="5" nType="-99" pos="l" purity="0.0000000000000000e+00" res="-3.4216349013149738e-03" rms="7.8931283950805664e-01" />
                <Node Cut="0.0000000000000000e+00" IVar="-1" NCoef="0" cType="1" depth="5" nType="-99" pos="r" purity="0.0000000000000000e+00" res="2.1646048408001661e-03" rms="7.8970694541931152e-01" />
              </Node>
              <Node Cut="2.4000000000000000e+01" IVar="4" NCoef="0" cType="1" depth="4" nType="0" pos="r" purity="0.0000000000000000e+00" res="1.6196056604385376e+00" rms="-nan">
                <Node Cut="0.0000000000000000e+00" IVar="-1" NCoef="0" cType="1" depth="5" nType="-99" pos="l" purity="0.0000000000000000e+00" res="3.7264493294060230e-03" rms="4.5410221815109253e-01" />
                <Node Cut="0.0000000000000000e+00" IVar="-1" NCoef="0" cType="1" depth="5" nType="-99" pos="r" purity="0.0000000000000000e+00" res="-3.6490384954959154e-03" rms="7.7466762065887451e-01" />
              </Node>
            </Node>
          </Node>
          <Node Cut="6.7000000000000000e+01" IVar="2" NCoef="0" cType="1" depth="2" nType="0" pos="r" purity="0.0000000000000000e+00" res="0.0000000000000000e+00" rms="0.0000000000000000e+00">
            <Node Cut="1.2000000000000000e+01" IVar="4" NCoef="0" cType="1" depth="3" nType="0" pos="l" purity="0.0000000000000000e+00" res="0.0000000000000000e+00" rms="0.0000000000000000e+00">
              <Node Cut="4.0000000000000000e+00" IVar="7" NCoef="0" cType="1" depth="4" nType="0" pos="l" purity="0.0000000000000000e+00" res="3.6724424362182617e-01" rms="-nan">
                <Node Cut="0.0000000000000000e+00" IVar="-1" NCoef="0" cType="1" depth="5" nType="-99" pos="l" purity="0.0000000000000000e+00" res="-4.1466648690402508e-03" rms="6.4552360773086548e-01" />
                <Node Cut="0.0000000000000000e+00" IVar="-1" NCoef="0" cType="1" depth="5" nType="-99" pos="r" purity="0.0000000000000000e+00" res="6.3532546162605286e-02" rms="1.4465477466583252e+00" />
              </Node>
              <Node Cut="2.0000000000000000e+00" IVar="8" NCoef="0" cType="1" depth="4" nType="0" pos="r" purity="0.0000000000000000e+00" res="1.2027432024478912e-01" rms="-nan">
                <Node Cut="0.0000000000000000e+00" IVar="-1" NCoef="0" cType="1" depth="5" nType="-99" pos="l" purity="0.0000000000000000e+00" res="-2.7155200019478798e-02" rms="5.5671018362045288e-01" />
                <Node Cut="0.0000000000000000e+00" IVar="-1" NCoef="0" cType="1" depth="5" nType="-99" pos="r" purity="0.0000000000000000e+00" res="1.1559835402294993e-03" rms="4.3329527974128723e-01" />
              </Node>
            </Node>
            <Node Cut="7.0000000000000000e+00" IVar="4" NCoef="0" cType="1" depth="3" nType="0" pos="r" purity="0.0000000000000000e+00" res="0.0000000000000000e+00" rms="0.0000000000000000e+00">
              <Node Cut="-1.3000000000000000e+01" IVar="4" NCoef="0" cType="1" depth="4" nType="0" pos="l" purity="0.0000000000000000e+00" res="0.0000000000000000e+00" rms="0.0000000000000000e+00">
                <Node Cut="0.0000000000000000e+00" IVar="-1" NCoef="0" cType="1" depth="5" nType="-99" pos="l" purity="0.0000000000000000e+00" res="-3.9757251215633005e-05" rms="3.5331827402114868e-01" />
                <Node Cut="0.0000000000000000e+00" IVar="-1" NCoef="0" cType="1" depth="5" nType="-99" pos="r" purity="0.0000000000000000e+00" res="1.6425487119704485e-03" rms="3.8211581110954285e-01" />
              </Node>
              <Node Cut="2.1000000000000000e+01" IVar="4" NCoef="0" cType="1" depth="4" nType="0" pos="r" purity="0.0000000000000000e+00" res="0.0000000000000000e+00" rms="0.0000000000000000e+00">
                <Node Cut="0.0000000000000000e+00" IVar="-1" NCoef="0" cType="1" depth="5" nType="-99" pos="l" purity="0.0000000000000000e+00" res="-1.4293167041614652e-03" rms="3.1364744901657104e-01" />
                <Node Cut="0.0000000000000000e+00" IVar="-1" NCoef="0" cType="1" depth="5" nType="-99" pos="r" purity="0.0000000000000000e+00" res="-2.7350677555659786e-05" rms="2.7521443367004395e-01" />
              </Node>
            </Node>
          </Node>
        </Node>
        <Node Cut="7.0000000000000000e+00" IVar="3" NCoef="0" cType="1" depth="1" nType="0" pos="r" purity="0.0000000000000000e+00" res="5.5528992414474487e-01" rms="5.4274106025695801e-01">
          <Node Cut="-6.7000000000000000e+01" IVar="4" NCoef="0" cType="1" depth="2" nType="0" pos="l" purity="0.0000000000000000e+00" res="0.0000000000000000e+00" rms="0.0000000000000000e+00">
            <Node Cut="1.2000000000000000e+01" IVar="0" NCoef="0" cType="1" depth="3" nType="0" pos="l" purity="0.0000000000000000e+00" res="-6.5631740726530552e-03" rms="5.7648265361785889e-01">
              <Node Cut="-1.3500000000000000e+02" IVar="4" NCoef="0" cType="1" depth="4" nType="0" pos="l" purity="0.0000000000000000e+00" res="-3.5576958209276199e-02" rms="1.0566353797912598e-01">
                <Node Cut="0.0000000000000000e+00" IVar="-1" NCoef="0" cType="1" depth="5" nType="-99" pos="l" purity="0.0000000000000000e+00" res="-9.6175167709589005e-03" rms="7.1201628446578979e-01" />
                <Node Cut="0.0000000000000000e+00" IVar="-1" NCoef="0" cType="1" depth="5" nType="-99" pos="r" purity="0.0000000000000000e+00" res="1.2859196867793798e-03" rms="1.2661671638488770e+00" />
              </Node>
              <Node Cut="3.0000000000000000e+00" IVar="8" NCoef="0" cType="1" depth="4" nType="0" pos="r" purity="0.0000000000000000e+00" res="1.0748296044766903e-03" rms="6.3785076141357422e-02">
                <Node Cut="0.0000000000000000e+00" IVar="-1" NCoef="0" cType="1" depth="5" nType="-99" pos="l" purity="0.0000000000000000e+00" res="2.4960353039205074e-03" rms="1.6160951554775238e-01" />
                <Node Cut="0.0000000000000000e+00" IVar="-1" NCoef="0" cType="1" depth="5" nType="-99" pos="r" purity="0.0000000000000000e+00" res="-6.9464780390262604e-03" rms="3.1301715970039368e-01" />
              </Node>
            </Node>
            <Node Cut="3.0000000000000000e+00" IVar="7" NCoef="0" cType="1" depth="3" nType="0" pos="r" purity="0.0000000000000000e+00" res="3.3746737986803055e-02" rms="8.0644690990447998e-01">
              <Node Cut="2.1000000000000000e+01" IVar="0" NCoef="0" cType="1" depth="4" nType="0" pos="l" purity="0.0000000000000000e+00" res="3.7139099091291428e-02" rms="8.5673797130584717e-01">
                <Node Cut="0.0000000000000000e+00" IVar="-1" NCoef="0" cType="1" depth="5" nType="-99" pos="l" purity="0.0000000000000000e+00" res="5.2479575388133526e-03" rms="9.0563726425170898e-01" />
                <Node Cut="0.0000000000000000e+00" IVar="-1" NCoef="0" cType="1" depth="5" nType="-99" pos="r" purity="0.0000000000000000e+00" res="-2.9901755042374134e-03" rms="5.9317672252655029e-01" />
              </Node>
              <Node Cut="1.1000000000000000e+01" IVar="2" NCoef="0" cType="1" depth="4" nType="0" pos="r" purity="0.0000000000000000e+00" res="3.1727356910705566e+00" rms="-nan">
                <Node Cut="0.0000000000000000e+00" IVar="-1" NCoef="0" cType="1" depth="5" nType="-99" pos="l" purity="0.0000000000000000e+00" res="-9.5307134324684739e-04" rms="9.6262633800506592e-01" />
                <Node Cut="0.0000000000000000e+00" IVar="-1" NCoef="0" cType="1" depth="5" nType="-99" pos="r" purity="0.0000000000000000e+00" res="-5.3136527538299561e-02" rms="1.0274780988693237e+00" />
              </Node>
            </Node>
          </Node>
          <Node Cut="1.5000000000000000e+01" IVar="2" NCoef="0" cType="1" depth="2" nType="0" pos="r" purity="0.0000000000000000e+00" res="0.0000000000000000e+00" rms="0.0000000000000000e+00">
            <Node Cut="1.0300000000000000e+02" IVar="3" NCoef="0" cType="1" depth="3" nType="0" pos="l" purity="0.0000000000000000e+00" res="-5.4807392880320549e-03" rms="-nan">
              <Node Cut="1.0000000000000000e+00" IVar="8" NCoef="0" cType="1" depth="4" nType="0" pos="l" purity="0.0000000000000000e+00" res="-1.0120473802089691e-02" rms="6.0011947154998779e-01">
                <Node Cut="0.0000000000000000e+00" IVar="-1" NCoef="0" cType="1" depth="5" nType="-99" pos="l" purity="0.0000000000000000e+00" res="8.7343700230121613e-02" rms="1.0130115747451782e+00" />
                <Node Cut="0.0000000000000000e+00" IVar="-1" NCoef="0" cType="1" depth="5" nType="-99" pos="r" purity="0.0000000000000000e+00" res="-1.5023315791040659e-03" rms="6.2594366073608398e-01" />
              </Node>
              <Node Cut="7.0000000000000000e+00" IVar="0" NCoef="0" cType="1" depth="4" nType="0" pos="r" purity="0.0000000000000000e+00" res="1.2602923810482025e-01" rms="1.0833307504653931e+00">
                <Node Cut="0.0000000000000000e+00" IVar="-1" NCoef="0" cType="1" depth="5" nType="-99" pos="l" purity="0.0000000000000000e+00" res="5.0391573458909988e-02" rms="1.6086317300796509e+00" />
                <Node Cut="0.0000000000000000e+00" IVar="-1" NCoef="0" cType="1" depth="5" nType="-99" pos="r" purity="0.0000000000000000e+00" res="-1.3672400964424014e-03" rms="7.6060479879379272e-01" />
              </Node>
            </Node>
            <Node Cut="1.6000000000000000e+01" IVar="3" NCoef="0" cType="1" depth="3" nType="0" pos="r" purity="0.0000000000000000e+00" res="2.1112804114818573e-01" rms="4.8526859283447266e-01">
              <Node Cut="3.0000000000000000e+00" IVar="8" NCoef="0" cType="1" depth="4" nType="0" pos="l" purity="0.0000000000000000e+00" res="4.3848164379596710e-02" rms="7.6285773515701294e-01">
                <Node Cut="0.0000000000000000e+00" IVar="-1" NCoef="0" cType="1" depth="5" nType="-99" pos="l" purity="0.0000000000000000e+00" res="-3.7933767307549715e-03" rms="4.6168249845504761e-01" />
                <Node Cut="0.0000000000000000e+00" IVar="-1" NCoef="0" cType="1" depth="5" nType="-99" pos="r" purity="0.0000000000000000e+00" res="7.7057606540620327e-03" rms="9.0627783536911011e-01" />
              </Node>
              <Node Cut="1.6000000000000000e+01" IVar="2" NCoef="0" cType="1" depth="4" nType="0" pos="r" purity="0.0000000000000000e+00" res="0.0000000000000000e+00" rms="0.0000000000000000e+00">
                <Node Cut="0.0000000000000000e+00" IVar="-1" NCoef="0" cType="1" depth="5" nType="-99" pos="l" purity="0.0000000000000000e+00" res="4.4608768075704575e-03" rms="4.5482820272445679e-01" />
                <Node Cut="0.0000000000000000e+00" IVar="-1" NCoef="0" cType="1" depth="5" nType="-99" pos="r" purity="0.0000000000000000e+00" res="3.1828221835894510e-05" rms="2.5420686602592468e-01" />
              </Node>
            </Node>
          </Node>
        </Node>
      </Node>
    </BinaryTree>
    