<?xml version="1.0"?>
<BinaryTree boostWeight="1.0000000000000000e+00" itree="367" type="DecisionTree">
      <Node Cut="-4.7000000000000000e+01" IVar="5" NCoef="0" cType="1" depth="0" nType="0" pos="s" purity="0.0000000000000000e+00" res="5.3374260663986206e-01" rms="6.8905454874038696e-01">
        <Node Cut="1.9200000000000000e+02" IVar="11" NCoef="0" cType="1" depth="1" nType="0" pos="l" purity="0.0000000000000000e+00" res="-1.3153872452676296e-02" rms="-nan">
          <Node Cut="-2.0000000000000000e+00" IVar="9" NCoef="0" cType="1" depth="2" nType="0" pos="l" purity="0.0000000000000000e+00" res="8.5792684555053711e-01" rms="-nan">
            <Node Cut="1.4000000000000000e+01" IVar="0" NCoef="0" cType="1" depth="3" nType="0" pos="l" purity="0.0000000000000000e+00" res="-2.0784838199615479e+00" rms="1.0481884479522705e+00">
              <Node Cut="0.0000000000000000e+00" IVar="-1" NCoef="0" cType="1" depth="4" nType="-99" pos="l" purity="0.0000000000000000e+00" res="-2.5146001577377319e-01" rms="0.0000000000000000e+00" />
              <Node Cut="0.0000000000000000e+00" IVar="-1" NCoef="0" cType="1" depth="4" nType="-99" pos="r" purity="0.0000000000000000e+00" res="4.4079553335905075e-02" rms="0.0000000000000000e+00" />
            </Node>
            <Node Cut="1.3000000000000000e+01" IVar="6" NCoef="0" cType="1" depth="3" nType="0" pos="r" purity="0.0000000000000000e+00" res="-9.0704388916492462e-02" rms="8.9119070768356323e-01">
              <Node Cut="-2.0000000000000000e+00" IVar="15" NCoef="0" cType="1" depth="4" nType="0" pos="l" purity="0.0000000000000000e+00" res="3.5662699490785599e-02" rms="5.7305103540420532e-01">
                <Node Cut="0.0000000000000000e+00" IVar="-1" NCoef="0" cType="1" depth="5" nType="-99" pos="l" purity="0.0000000000000000e+00" res="-1.1797063052654266e-01" rms="5.3434121608734131e-01" />
                <Node Cut="0.0000000000000000e+00" IVar="-1" NCoef="0" cType="1" depth="5" nType="-99" pos="r" purity="0.0000000000000000e+00" res="-3.1479636672884226e-03" rms="9.0702164173126221e-01" />
              </Node>
              <Node Cut="3.3000000000000000e+01" IVar="0" NCoef="0" cType="1" depth="4" nType="0" pos="r" purity="0.0000000000000000e+00" res="-1.2204635143280029e+00" rms="7.2264951467514038e-01">
                <Node Cut="0.0000000000000000e+00" IVar="-1" NCoef="0" cType="1" depth="5" nType="-99" pos="l" purity="0.0000000000000000e+00" res="-6.3769206404685974e-02" rms="6.9232654571533203e-01" />
                <Node Cut="0.0000000000000000e+00" IVar="-1" NCoef="0" cType="1" depth="5" nType="-99" pos="r" purity="0.0000000000000000e+00" res="-1.7320688068866730e-01" rms="0.0000000000000000e+00" />
              </Node>
            </Node>
          </Node>
          <Node Cut="1.0000000000000000e+00" IVar="15" NCoef="0" cType="1" depth="2" nType="0" pos="r" purity="0.0000000000000000e+00" res="-2.1444880403578281e-03" rms="4.0433189272880554e-01">
            <Node Cut="-9.0000000000000000e+00" IVar="4" NCoef="0" cType="1" depth="3" nType="0" pos="l" purity="0.0000000000000000e+00" res="1.3359854387200000e+12" rms="-nan">
              <Node Cut="-4.2000000000000000e+01" IVar="4" NCoef="0" cType="1" depth="4" nType="0" pos="l" purity="0.0000000000000000e+00" res="0.0000000000000000e+00" rms="0.0000000000000000e+00">
                <Node Cut="0.0000000000000000e+00" IVar="-1" NCoef="0" cType="1" depth="5" nType="-99" pos="l" purity="0.0000000000000000e+00" res="-1.2472189264371991e-03" rms="2.4062164127826691e-01" />
                <Node Cut="0.0000000000000000e+00" IVar="-1" NCoef="0" cType="1" depth="5" nType="-99" pos="r" purity="0.0000000000000000e+00" res="1.3958182185888290e-02" rms="5.7865297794342041e-01" />
              </Node>
              <Node Cut="1.1000000000000000e+01" IVar="4" NCoef="0" cType="1" depth="4" nType="0" pos="r" purity="0.0000000000000000e+00" res="0.0000000000000000e+00" rms="0.0000000000000000e+00">
                <Node Cut="0.0000000000000000e+00" IVar="-1" NCoef="0" cType="1" depth="5" nType="-99" pos="l" purity="0.0000000000000000e+00" res="-8.1668216735124588e-03" rms="5.0771069526672363e-01" />
                <Node Cut="0.0000000000000000e+00" IVar="-1" NCoef="0" cType="1" depth="5" nType="-99" pos="r" purity="0.0000000000000000e+00" res="9.5696683274582028e-04" rms="8.2252794504165649e-01" />
              </Node>
            </Node>
            <Node Cut="4.5200000000000000e+02" IVar="11" NCoef="0" cType="1" depth="3" nType="0" pos="r" purity="0.0000000000000000e+00" res="0.0000000000000000e+00" rms="6.9130444526672363e-01">
              <Node Cut="1.0000000000000000e+00" IVar="9" NCoef="0" cType="1" depth="4" nType="0" pos="l" purity="0.0000000000000000e+00" res="8.6892890930175781e-01" rms="-nan">
                <Node Cut="0.0000000000000000e+00" IVar="-1" NCoef="0" cType="1" depth="5" nType="-99" pos="l" purity="0.0000000000000000e+00" res="6.8279537372291088e-03" rms="9.6620517969131470e-01" />
                <Node Cut="0.0000000000000000e+00" IVar="-1" NCoef="0" cType="1" depth="5" nType="-99" pos="r" purity="0.0000000000000000e+00" res="4.5388024300336838e-02" rms="1.0712919235229492e+00" />
              </Node>
              <Node Cut="4.5500000000000000e+02" IVar="11" NCoef="0" cType="1" depth="4" nType="0" pos="r" purity="0.0000000000000000e+00" res="6.8328148126602173e-01" rms="-nan">
                <Node Cut="0.0000000000000000e+00" IVar="-1" NCoef="0" cType="1" depth="5" nType="-99" pos="l" purity="0.0000000000000000e+00" res="-1.0072208940982819e-01" rms="1.3141584396362305e+00" />
                <Node Cut="0.0000000000000000e+00" IVar="-1" NCoef="0" cType="1" depth="5" nType="-99" pos="r" purity="0.0000000000000000e+00" res="7.1475462755188346e-04" rms="5.3462558984756470e-01" />
              </Node>
            </Node>
          </Node>
        </Node>
        <Node Cut="-2.0000000000000000e+00" IVar="5" NCoef="0" cType="1" depth="1" nType="0" pos="r" purity="0.0000000000000000e+00" res="0.0000000000000000e+00" rms="0.0000000000000000e+00">
          <Node Cut="-1.4000000000000000e+01" IVar="4" NCoef="0" cType="1" depth="2" nType="0" pos="l" purity="0.0000000000000000e+00" res="4.6310979127883911e-01" rms="8.4537082910537720e-01">
            <Node Cut="1.9700000000000000e+02" IVar="11" NCoef="0" cType="1" depth="3" nType="0" pos="l" purity="0.0000000000000000e+00" res="-5.6384243071079254e-03" rms="-nan">
              <Node Cut="1.9000000000000000e+01" IVar="0" NCoef="0" cType="1" depth="4" nType="0" pos="l" purity="0.0000000000000000e+00" res="-8.3337895572185516e-02" rms="7.1995699405670166e-01">
                <Node Cut="0.0000000000000000e+00" IVar="-1" NCoef="0" cType="1" depth="5" nType="-99" pos="l" purity="0.0000000000000000e+00" res="-2.0334504544734955e-02" rms="8.4005439281463623e-01" />
                <Node Cut="0.0000000000000000e+00" IVar="-1" NCoef="0" cType="1" depth="5" nType="-99" pos="r" purity="0.0000000000000000e+00" res="-1.3646706938743591e-03" rms="6.2953716516494751e-01" />
              </Node>
              <Node Cut="2.9000000000000000e+01" IVar="13" NCoef="0" cType="1" depth="4" nType="0" pos="r" purity="0.0000000000000000e+00" res="0.0000000000000000e+00" rms="0.0000000000000000e+00">
                <Node Cut="0.0000000000000000e+00" IVar="-1" NCoef="0" cType="1" depth="5" nType="-99" pos="l" purity="0.0000000000000000e+00" res="5.6239042431116104e-02" rms="1.0729162693023682e+00" />
                <Node Cut="0.0000000000000000e+00" IVar="-1" NCoef="0" cType="1" depth="5" nType="-99" pos="r" purity="0.0000000000000000e+00" res="1.7535992083139718e-04" rms="3.3488267660140991e-01" />
              </Node>
            </Node>
            <Node Cut="-2.0000000000000000e+00" IVar="4" NCoef="0" cType="1" depth="3" nType="0" pos="r" purity="0.0000000000000000e+00" res="0.0000000000000000e+00" rms="0.0000000000000000e+00">
              <Node Cut="-6.1000000000000000e+01" IVar="10" NCoef="0" cType="1" depth="4" nType="0" pos="l" purity="0.0000000000000000e+00" res="0.0000000000000000e+00" rms="8.2540321350097656e-01">
                <Node Cut="0.0000000000000000e+00" IVar="-1" NCoef="0" cType="1" depth="5" nType="-99" pos="l" purity="0.0000000000000000e+00" res="2.3482501506805420e-02" rms="8.3232694864273071e-01" />
                <Node Cut="0.0000000000000000e+00" IVar="-1" NCoef="0" cType="1" depth="5" nType="-99" pos="r" purity="0.0000000000000000e+00" res="-1.2030954239889979e-03" rms="1.0680844783782959e+00" />
              </Node>
              <Node Cut="1.0000000000000000e+00" IVar="17" NCoef="0" cType="1" depth="4" nType="0" pos="r" purity="0.0000000000000000e+00" res="-8.8045792654156685e-04" rms="1.4042277634143829e-01">
                <Node Cut="0.0000000000000000e+00" IVar="-1" NCoef="0" cType="1" depth="5" nType="-99" pos="l" purity="0.0000000000000000e+00" res="7.8659341670572758e-04" rms="8.5054832696914673e-01" />
                <Node Cut="0.0000000000000000e+00" IVar="-1" NCoef="0" cType="1" depth="5" nType="-99" pos="r" purity="0.0000000000000000e+00" res="-1.0774727910757065e-02" rms="7.0661544799804688e-01" />
              </Node>
            </Node>
          </Node>
          <Node Cut="2.0000000000000000e+00" IVar="14" NCoef="0" cType="1" depth="2" nType="0" pos="r" purity="0.0000000000000000e+00" res="-1.7679696611594409e-04" rms="1.5365669131278992e-01">
            <Node Cut="2.0000000000000000e+01" IVar="5" NCoef="0" cType="1" depth="3" nType="0" pos="l" purity="0.0000000000000000e+00" res="0.0000000000000000e+00" rms="0.0000000000000000e+00">
              <Node Cut="7.2000000000000000e+01" IVar="10" NCoef="0" cType="1" depth="4" nType="0" pos="l" purity="0.0000000000000000e+00" res="3.8724245969206095e-03" rms="5.8212482929229736e-01">
                <Node Cut="0.0000000000000000e+00" IVar="-1" NCoef="0" cType="1" depth="5" nType="-99" pos="l" purity="0.0000000000000000e+00" res="2.5544280651956797e-04" rms="5.8809852600097656e-01" />
                <Node Cut="0.0000000000000000e+00" IVar="-1" NCoef="0" cType="1" depth="5" nType="-99" pos="r" purity="0.0000000000000000e+00" res="4.4966791756451130e-03" rms="5.2419310808181763e-01" />
              </Node>
              <Node Cut="1.5000000000000000e+01" IVar="2" NCoef="0" cType="1" depth="4" nType="0" pos="r" purity="0.0000000000000000e+00" res="0.0000000000000000e+00" rms="0.0000000000000000e+00">
                <Node Cut="0.0000000000000000e+00" IVar="-1" NCoef="0" cType="1" depth="5" nType="-99" pos="l" purity="0.0000000000000000e+00" res="-3.0649565160274506e-03" rms="5.2839654684066772e-01" />
                <Node Cut="0.0000000000000000e+00" IVar="-1" NCoef="0" cType="1" depth="5" nType="-99" pos="r" purity="0.0000000000000000e+00" res="3.1105421385291265e-06" rms="2.9077515006065369e-01" />
              </Node>
            </Node>
            <Node Cut="4.9000000000000000e+01" IVar="0" NCoef="0" cType="1" depth="3" nType="0" pos="r" purity="0.0000000000000000e+00" res="-2.9110575560480356e-03" rms="4.8999956250190735e-01">
              <Node Cut="1.4200000000000000e+02" IVar="2" NCoef="0" cType="1" depth="4" nType="0" pos="l" purity="0.0000000000000000e+00" res="0.0000000000000000e+00" rms="0.0000000000000000e+00">
                <Node Cut="0.0000000000000000e+00" IVar="-1" NCoef="0" cType="1" depth="5" nType="-99" pos="l" purity="0.0000000000000000e+00" res="-1.7626828048378229e-03" rms="7.5404840707778931e-01" />
                <Node Cut="0.0000000000000000e+00" IVar="-1" NCoef="0" cType="1" depth="5" nType="-99" pos="r" purity="0.0000000000000000e+00" res="3.6311740404926240e-04" rms="2.6313018798828125e-01" />
              </Node>
              <Node Cut="0.0000000000000000e+00" IVar="4" NCoef="0" cType="1" depth="4" nType="0" pos="r" purity="0.0000000000000000e+00" res="8.4990674257278442e-01" rms="4.9560281634330750e-01">
                <Node Cut="0.0000000000000000e+00" IVar="-1" NCoef="0" cType="1" depth="5" nType="-99" pos="l" purity="0.0000000000000000e+00" res="4.9160629714606330e-05" rms="2.8236320614814758e-01" />
                <Node Cut="0.0000000000000000e+00" IVar="-1" NCoef="0" cType="1" depth="5" nType="-99" pos="r" purity="0.0000000000000000e+00" res="4.0240529924631119e-03" rms="6.9604599475860596e-01" />
              </Node>
            </Node>
          </Node>
        </Node>
      </Node>
    </BinaryTree>
    