<?xml version="1.0"?>
<BinaryTree boostWeight="1.0000000000000000e+00" itree="207" type="DecisionTree">
      <Node Cut="1.0000000000000000e+00" IVar="2" NCoef="0" cType="1" depth="0" nType="0" pos="s" purity="0.0000000000000000e+00" res="-3.3845724829006940e-05" rms="6.4539663493633270e-02">
        <Node Cut="7.0000000000000000e+00" IVar="0" NCoef="0" cType="1" depth="1" nType="0" pos="l" purity="0.0000000000000000e+00" res="-1.1044691200368106e-04" rms="1.4879289269447327e-01">
          <Node Cut="6.0000000000000000e+00" IVar="0" NCoef="0" cType="1" depth="2" nType="0" pos="l" purity="0.0000000000000000e+00" res="1.8751116294879466e-04" rms="1.5474240481853485e-01">
            <Node Cut="3.0000000000000000e+00" IVar="6" NCoef="0" cType="1" depth="3" nType="0" pos="l" purity="0.0000000000000000e+00" res="7.0509505458176136e-03" rms="-nan">
              <Node Cut="6.5000000000000000e+01" IVar="1" NCoef="0" cType="1" depth="4" nType="0" pos="l" purity="0.0000000000000000e+00" res="7.1926392614841461e-02" rms="2.6049321889877319e-01">
                <Node Cut="0.0000000000000000e+00" IVar="-1" NCoef="0" cType="1" depth="5" nType="-99" pos="l" purity="0.0000000000000000e+00" res="-1.1700646718963981e-03" rms="1.6730205714702606e-01" />
                <Node Cut="0.0000000000000000e+00" IVar="-1" NCoef="0" cType="1" depth="5" nType="-99" pos="r" purity="0.0000000000000000e+00" res="3.2020080834627151e-04" rms="1.3786892592906952e-01" />
              </Node>
              <Node Cut="1.0800000000000000e+02" IVar="1" NCoef="0" cType="1" depth="4" nType="0" pos="r" purity="0.0000000000000000e+00" res="9.9907312542200089e-03" rms="1.0123106837272644e-01">
                <Node Cut="0.0000000000000000e+00" IVar="-1" NCoef="0" cType="1" depth="5" nType="-99" pos="l" purity="0.0000000000000000e+00" res="1.3142218813300133e-04" rms="2.1498891711235046e-01" />
                <Node Cut="0.0000000000000000e+00" IVar="-1" NCoef="0" cType="1" depth="5" nType="-99" pos="r" purity="0.0000000000000000e+00" res="-1.8441917200107127e-04" rms="1.3804459571838379e-01" />
              </Node>
            </Node>
            <Node Cut="9.5000000000000000e+01" IVar="1" NCoef="0" cType="1" depth="3" nType="0" pos="r" purity="0.0000000000000000e+00" res="0.0000000000000000e+00" rms="0.0000000000000000e+00">
              <Node Cut="0.0000000000000000e+00" IVar="4" NCoef="0" cType="1" depth="4" nType="0" pos="l" purity="0.0000000000000000e+00" res="0.0000000000000000e+00" rms="0.0000000000000000e+00">
                <Node Cut="0.0000000000000000e+00" IVar="-1" NCoef="0" cType="1" depth="5" nType="-99" pos="l" purity="0.0000000000000000e+00" res="6.5266825258731842e-03" rms="1.8586494028568268e-01" />
                <Node Cut="0.0000000000000000e+00" IVar="-1" NCoef="0" cType="1" depth="5" nType="-99" pos="r" purity="0.0000000000000000e+00" res="6.6209124634042382e-04" rms="1.9733224809169769e-01" />
              </Node>
              <Node Cut="1.0000000000000000e+00" IVar="6" NCoef="0" cType="1" depth="4" nType="0" pos="r" purity="0.0000000000000000e+00" res="0.0000000000000000e+00" rms="0.0000000000000000e+00">
                <Node Cut="0.0000000000000000e+00" IVar="-1" NCoef="0" cType="1" depth="5" nType="-99" pos="l" purity="0.0000000000000000e+00" res="-2.6498122606426477e-03" rms="1.1068767309188843e-01" />
                <Node Cut="0.0000000000000000e+00" IVar="-1" NCoef="0" cType="1" depth="5" nType="-99" pos="r" purity="0.0000000000000000e+00" res="1.2910764780826867e-04" rms="1.3172329962253571e-01" />
              </Node>
            </Node>
          </Node>
          <Node Cut="1.0600000000000000e+02" IVar="1" NCoef="0" cType="1" depth="2" nType="0" pos="r" purity="0.0000000000000000e+00" res="0.0000000000000000e+00" rms="1.2206867337226868e-01">
            <Node Cut="4.0000000000000000e+00" IVar="4" NCoef="0" cType="1" depth="3" nType="0" pos="l" purity="0.0000000000000000e+00" res="-6.5164915286004543e-03" rms="1.6125969588756561e-01">
              <Node Cut="1.0300000000000000e+02" IVar="1" NCoef="0" cType="1" depth="4" nType="0" pos="l" purity="0.0000000000000000e+00" res="0.0000000000000000e+00" rms="0.0000000000000000e+00">
                <Node Cut="0.0000000000000000e+00" IVar="-1" NCoef="0" cType="1" depth="5" nType="-99" pos="l" purity="0.0000000000000000e+00" res="-5.1560974679887295e-04" rms="1.6282272338867188e-01" />
                <Node Cut="0.0000000000000000e+00" IVar="-1" NCoef="0" cType="1" depth="5" nType="-99" pos="r" purity="0.0000000000000000e+00" res="-3.9840298704802990e-03" rms="1.3430963456630707e-01" />
              </Node>
              <Node Cut="8.0000000000000000e+00" IVar="0" NCoef="0" cType="1" depth="4" nType="0" pos="r" purity="0.0000000000000000e+00" res="2.8114026784896851e-01" rms="1.0874848067760468e-01">
                <Node Cut="0.0000000000000000e+00" IVar="-1" NCoef="0" cType="1" depth="5" nType="-99" pos="l" purity="0.0000000000000000e+00" res="1.8242031335830688e-02" rms="0.0000000000000000e+00" />
                <Node Cut="0.0000000000000000e+00" IVar="-1" NCoef="0" cType="1" depth="5" nType="-99" pos="r" purity="0.0000000000000000e+00" res="4.0093604475259781e-02" rms="0.0000000000000000e+00" />
              </Node>
            </Node>
            <Node Cut="3.0000000000000000e+00" IVar="6" NCoef="0" cType="1" depth="3" nType="0" pos="r" purity="0.0000000000000000e+00" res="3.4263057750649750e-04" rms="1.2376338988542557e-01">
              <Node Cut="3.1400000000000000e+02" IVar="1" NCoef="0" cType="1" depth="4" nType="0" pos="l" purity="0.0000000000000000e+00" res="4.4424153864383698e-02" rms="2.1672184765338898e-01">
                <Node Cut="0.0000000000000000e+00" IVar="-1" NCoef="0" cType="1" depth="5" nType="-99" pos="l" purity="0.0000000000000000e+00" res="-2.1630006085615605e-04" rms="1.2588055431842804e-01" />
                <Node Cut="0.0000000000000000e+00" IVar="-1" NCoef="0" cType="1" depth="5" nType="-99" pos="r" purity="0.0000000000000000e+00" res="-4.2318445630371571e-03" rms="7.1647144854068756e-02" />
              </Node>
              <Node Cut="1.1100000000000000e+02" IVar="1" NCoef="0" cType="1" depth="4" nType="0" pos="r" purity="0.0000000000000000e+00" res="0.0000000000000000e+00" rms="0.0000000000000000e+00">
                <Node Cut="0.0000000000000000e+00" IVar="-1" NCoef="0" cType="1" depth="5" nType="-99" pos="l" purity="0.0000000000000000e+00" res="2.6232751552015543e-03" rms="1.7177988588809967e-01" />
                <Node Cut="0.0000000000000000e+00" IVar="-1" NCoef="0" cType="1" depth="5" nType="-99" pos="r" purity="0.0000000000000000e+00" res="1.5339918900281191e-04" rms="1.2233684957027435e-01" />
              </Node>
            </Node>
          </Node>
        </Node>
        <Node Cut="1.0000000000000000e+00" IVar="1" NCoef="0" cType="1" depth="1" nType="0" pos="r" purity="0.0000000000000000e+00" res="0.0000000000000000e+00" rms="0.0000000000000000e+00">
          <Node Cut="4.0000000000000000e+00" IVar="6" NCoef="0" cType="1" depth="2" nType="0" pos="l" purity="0.0000000000000000e+00" res="1.1366900056600571e-02" rms="4.7406831383705139e-01">
            <Node Cut="0.0000000000000000e+00" IVar="4" NCoef="0" cType="1" depth="3" nType="0" pos="l" purity="0.0000000000000000e+00" res="-3.0722301453351974e-03" rms="1.4054544270038605e-01">
              <Node Cut="0.0000000000000000e+00" IVar="-1" NCoef="0" cType="1" depth="4" nType="-99" pos="l" purity="0.0000000000000000e+00" res="-1.7083480954170227e-02" rms="0.0000000000000000e+00" />
              <Node Cut="6.0000000000000000e+00" IVar="0" NCoef="0" cType="1" depth="4" nType="0" pos="r" purity="0.0000000000000000e+00" res="-4.0634819306433201e-03" rms="2.0378637313842773e-01">
                <Node Cut="0.0000000000000000e+00" IVar="-1" NCoef="0" cType="1" depth="5" nType="-99" pos="l" purity="0.0000000000000000e+00" res="5.0542614189907908e-04" rms="2.1238097548484802e-01" />
                <Node Cut="0.0000000000000000e+00" IVar="-1" NCoef="0" cType="1" depth="5" nType="-99" pos="r" purity="0.0000000000000000e+00" res="-4.9311905167996883e-03" rms="1.4600837230682373e-01" />
              </Node>
            </Node>
            <Node Cut="2.0000000000000000e+00" IVar="0" NCoef="0" cType="1" depth="3" nType="0" pos="r" purity="0.0000000000000000e+00" res="6.2353644520044327e-02" rms="1.0573191642761230e+00">
              <Node Cut="5.0000000000000000e+00" IVar="6" NCoef="0" cType="1" depth="4" nType="0" pos="l" purity="0.0000000000000000e+00" res="0.0000000000000000e+00" rms="2.5517058372497559e+00">
                <Node Cut="0.0000000000000000e+00" IVar="-1" NCoef="0" cType="1" depth="5" nType="-99" pos="l" purity="0.0000000000000000e+00" res="6.2129730358719826e-03" rms="0.0000000000000000e+00" />
                <Node Cut="0.0000000000000000e+00" IVar="-1" NCoef="0" cType="1" depth="5" nType="-99" pos="r" purity="0.0000000000000000e+00" res="-1.4776407741010189e-02" rms="0.0000000000000000e+00" />
              </Node>
              <Node Cut="5.0000000000000000e+00" IVar="6" NCoef="0" cType="1" depth="4" nType="0" pos="r" purity="0.0000000000000000e+00" res="1.6831759363412857e-02" rms="4.1828331351280212e-01">
                <Node Cut="0.0000000000000000e+00" IVar="-1" NCoef="0" cType="1" depth="5" nType="-99" pos="l" purity="0.0000000000000000e+00" res="5.6251548230648041e-03" rms="1.0974647998809814e+00" />
                <Node Cut="0.0000000000000000e+00" IVar="-1" NCoef="0" cType="1" depth="5" nType="-99" pos="r" purity="0.0000000000000000e+00" res="1.1586462706327438e-01" rms="1.8707206249237061e+00" />
              </Node>
            </Node>
          </Node>
          <Node Cut="3.9000000000000000e+01" IVar="1" NCoef="0" cType="1" depth="2" nType="0" pos="r" purity="0.0000000000000000e+00" res="0.0000000000000000e+00" rms="0.0000000000000000e+00">
            <Node Cut="1.0000000000000000e+00" IVar="4" NCoef="0" cType="1" depth="3" nType="0" pos="l" purity="0.0000000000000000e+00" res="-2.4766903370618820e-03" rms="2.5145521759986877e-01">
              <Node Cut="3.0000000000000000e+00" IVar="0" NCoef="0" cType="1" depth="4" nType="0" pos="l" purity="0.0000000000000000e+00" res="-4.4877943582832813e-03" rms="2.4751177430152893e-01">
                <Node Cut="0.0000000000000000e+00" IVar="-1" NCoef="0" cType="1" depth="5" nType="-99" pos="l" purity="0.0000000000000000e+00" res="-1.7041858518496156e-03" rms="2.3118196427822113e-01" />
                <Node Cut="0.0000000000000000e+00" IVar="-1" NCoef="0" cType="1" depth="5" nType="-99" pos="r" purity="0.0000000000000000e+00" res="-5.7681332691572607e-05" rms="2.5225564837455750e-01" />
              </Node>
              <Node Cut="6.0000000000000000e+00" IVar="6" NCoef="0" cType="1" depth="4" nType="0" pos="r" purity="0.0000000000000000e+00" res="9.2779416590929031e-03" rms="2.2713039815425873e-01">
                <Node Cut="0.0000000000000000e+00" IVar="-1" NCoef="0" cType="1" depth="5" nType="-99" pos="l" purity="0.0000000000000000e+00" res="2.3558165412396193e-03" rms="2.9585152864456177e-01" />
                <Node Cut="0.0000000000000000e+00" IVar="-1" NCoef="0" cType="1" depth="5" nType="-99" pos="r" purity="0.0000000000000000e+00" res="-2.8220485895872116e-02" rms="0.0000000000000000e+00" />
              </Node>
            </Node>
            <Node Cut="5.0000000000000000e+00" IVar="6" NCoef="0" cType="1" depth="3" nType="0" pos="r" purity="0.0000000000000000e+00" res="3.3577557769604027e-04" rms="1.3877518475055695e-01">
              <Node Cut="6.6000000000000000e+01" IVar="1" NCoef="0" cType="1" depth="4" nType="0" pos="l" purity="0.0000000000000000e+00" res="0.0000000000000000e+00" rms="0.0000000000000000e+00">
                <Node Cut="0.0000000000000000e+00" IVar="-1" NCoef="0" cType="1" depth="5" nType="-99" pos="l" purity="0.0000000000000000e+00" res="4.4955319026485085e-04" rms="1.8637457489967346e-01" />
                <Node Cut="0.0000000000000000e+00" IVar="-1" NCoef="0" cType="1" depth="5" nType="-99" pos="r" purity="0.0000000000000000e+00" res="3.1035488063935190e-05" rms="1.3557836413383484e-01" />
              </Node>
              <Node Cut="1.0300000000000000e+02" IVar="1" NCoef="0" cType="1" depth="4" nType="0" pos="r" purity="0.0000000000000000e+00" res="0.0000000000000000e+00" rms="0.0000000000000000e+00">
                <Node Cut="0.0000000000000000e+00" IVar="-1" NCoef="0" cType="1" depth="5" nType="-99" pos="l" purity="0.0000000000000000e+00" res="-4.2587001807987690e-03" rms="2.3443047702312469e-01" />
                <Node Cut="0.0000000000000000e+00" IVar="-1" NCoef="0" cType="1" depth="5" nType="-99" pos="r" purity="0.0000000000000000e+00" res="1.2868941666965839e-05" rms="1.2836644053459167e-01" />
              </Node>
            </Node>
          </Node>
        </Node>
      </Node>
    </BinaryTree>
    