<?xml version="1.0"?>
<BinaryTree boostWeight="1.0000000000000000e+00" itree="21" type="DecisionTree">
      <Node Cut="6.0000000000000000e+00" IVar="0" NCoef="0" cType="1" depth="0" nType="0" pos="s" purity="0.0000000000000000e+00" res="1.1973954813782051e-12" rms="1.6078342497348785e-01">
        <Node Cut="4.0000000000000000e+00" IVar="0" NCoef="0" cType="1" depth="1" nType="0" pos="l" purity="0.0000000000000000e+00" res="-1.6133254393935204e-02" rms="1.6911366581916809e-01">
          <Node Cut="0.0000000000000000e+00" IVar="4" NCoef="0" cType="1" depth="2" nType="0" pos="l" purity="0.0000000000000000e+00" res="0.0000000000000000e+00" rms="0.0000000000000000e+00">
            <Node Cut="2.0000000000000000e+00" IVar="0" NCoef="0" cType="1" depth="3" nType="0" pos="l" purity="0.0000000000000000e+00" res="-4.5852217823266983e-02" rms="1.5331469476222992e-01">
              <Node Cut="7.0000000000000000e+00" IVar="1" NCoef="0" cType="1" depth="4" nType="0" pos="l" purity="0.0000000000000000e+00" res="4.0956038236618042e-01" rms="4.9839738011360168e-01">
                <Node Cut="0.0000000000000000e+00" IVar="-1" NCoef="0" cType="1" depth="5" nType="-99" pos="l" purity="0.0000000000000000e+00" res="2.5722932070493698e-02" rms="2.4122464656829834e-01" />
                <Node Cut="0.0000000000000000e+00" IVar="-1" NCoef="0" cType="1" depth="5" nType="-99" pos="r" purity="0.0000000000000000e+00" res="-7.9967640340328217e-03" rms="1.5991073846817017e-01" />
              </Node>
              <Node Cut="-1.0000000000000000e+00" IVar="4" NCoef="0" cType="1" depth="4" nType="0" pos="r" purity="0.0000000000000000e+00" res="0.0000000000000000e+00" rms="0.0000000000000000e+00">
                <Node Cut="0.0000000000000000e+00" IVar="-1" NCoef="0" cType="1" depth="5" nType="-99" pos="l" purity="0.0000000000000000e+00" res="-5.9304102323949337e-03" rms="1.3749793171882629e-01" />
                <Node Cut="0.0000000000000000e+00" IVar="-1" NCoef="0" cType="1" depth="5" nType="-99" pos="r" purity="0.0000000000000000e+00" res="-3.5413380246609449e-03" rms="1.5640600025653839e-01" />
              </Node>
            </Node>
            <Node Cut="2.0000000000000000e+00" IVar="4" NCoef="0" cType="1" depth="3" nType="0" pos="r" purity="0.0000000000000000e+00" res="5.2249706350266933e-03" rms="-nan">
              <Node Cut="6.0000000000000000e+00" IVar="6" NCoef="0" cType="1" depth="4" nType="0" pos="l" purity="0.0000000000000000e+00" res="0.0000000000000000e+00" rms="0.0000000000000000e+00">
                <Node Cut="0.0000000000000000e+00" IVar="-1" NCoef="0" cType="1" depth="5" nType="-99" pos="l" purity="0.0000000000000000e+00" res="-1.5020020073279738e-03" rms="1.9054017961025238e-01" />
                <Node Cut="0.0000000000000000e+00" IVar="-1" NCoef="0" cType="1" depth="5" nType="-99" pos="r" purity="0.0000000000000000e+00" res="-1.3438873924314976e-02" rms="2.3518484830856323e-01" />
              </Node>
              <Node Cut="1.0000000000000000e+00" IVar="5" NCoef="0" cType="1" depth="4" nType="0" pos="r" purity="0.0000000000000000e+00" res="0.0000000000000000e+00" rms="0.0000000000000000e+00">
                <Node Cut="0.0000000000000000e+00" IVar="-1" NCoef="0" cType="1" depth="5" nType="-99" pos="l" purity="0.0000000000000000e+00" res="-1.0851518251001835e-02" rms="1.8861994147300720e-01" />
                <Node Cut="0.0000000000000000e+00" IVar="-1" NCoef="0" cType="1" depth="5" nType="-99" pos="r" purity="0.0000000000000000e+00" res="-5.2455156110227108e-03" rms="1.5526637434959412e-01" />
              </Node>
            </Node>
          </Node>
          <Node Cut="3.3000000000000000e+01" IVar="1" NCoef="0" cType="1" depth="2" nType="0" pos="r" purity="0.0000000000000000e+00" res="0.0000000000000000e+00" rms="0.0000000000000000e+00">
            <Node Cut="4.0000000000000000e+00" IVar="6" NCoef="0" cType="1" depth="3" nType="0" pos="l" purity="0.0000000000000000e+00" res="0.0000000000000000e+00" rms="0.0000000000000000e+00">
              <Node Cut="1.3000000000000000e+01" IVar="1" NCoef="0" cType="1" depth="4" nType="0" pos="l" purity="0.0000000000000000e+00" res="0.0000000000000000e+00" rms="0.0000000000000000e+00">
                <Node Cut="0.0000000000000000e+00" IVar="-1" NCoef="0" cType="1" depth="5" nType="-99" pos="l" purity="0.0000000000000000e+00" res="-2.0016187336295843e-03" rms="2.1600051224231720e-01" />
                <Node Cut="0.0000000000000000e+00" IVar="-1" NCoef="0" cType="1" depth="5" nType="-99" pos="r" purity="0.0000000000000000e+00" res="3.0792905017733574e-03" rms="2.0164030790328979e-01" />
              </Node>
              <Node Cut="1.0000000000000000e+00" IVar="1" NCoef="0" cType="1" depth="4" nType="0" pos="r" purity="0.0000000000000000e+00" res="0.0000000000000000e+00" rms="0.0000000000000000e+00">
                <Node Cut="0.0000000000000000e+00" IVar="-1" NCoef="0" cType="1" depth="5" nType="-99" pos="l" purity="0.0000000000000000e+00" res="2.6227232068777084e-02" rms="8.5756283998489380e-01" />
                <Node Cut="0.0000000000000000e+00" IVar="-1" NCoef="0" cType="1" depth="5" nType="-99" pos="r" purity="0.0000000000000000e+00" res="6.1989659443497658e-03" rms="3.4577608108520508e-01" />
              </Node>
            </Node>
            <Node Cut="5.0000000000000000e+00" IVar="6" NCoef="0" cType="1" depth="3" nType="0" pos="r" purity="0.0000000000000000e+00" res="0.0000000000000000e+00" rms="0.0000000000000000e+00">
              <Node Cut="1.0000000000000000e+00" IVar="3" NCoef="0" cType="1" depth="4" nType="0" pos="l" purity="0.0000000000000000e+00" res="-4.7043012455105782e-03" rms="1.4614348113536835e-01">
                <Node Cut="0.0000000000000000e+00" IVar="-1" NCoef="0" cType="1" depth="5" nType="-99" pos="l" purity="0.0000000000000000e+00" res="3.7969500408507884e-04" rms="1.4687576889991760e-01" />
                <Node Cut="0.0000000000000000e+00" IVar="-1" NCoef="0" cType="1" depth="5" nType="-99" pos="r" purity="0.0000000000000000e+00" res="-1.6265269368886948e-03" rms="1.4434047043323517e-01" />
              </Node>
              <Node Cut="6.0000000000000000e+00" IVar="6" NCoef="0" cType="1" depth="4" nType="0" pos="r" purity="0.0000000000000000e+00" res="0.0000000000000000e+00" rms="0.0000000000000000e+00">
                <Node Cut="0.0000000000000000e+00" IVar="-1" NCoef="0" cType="1" depth="5" nType="-99" pos="l" purity="0.0000000000000000e+00" res="-2.9617953114211559e-03" rms="1.5092213451862335e-01" />
                <Node Cut="0.0000000000000000e+00" IVar="-1" NCoef="0" cType="1" depth="5" nType="-99" pos="r" purity="0.0000000000000000e+00" res="-7.4063031934201717e-03" rms="2.0409016311168671e-01" />
              </Node>
            </Node>
          </Node>
        </Node>
        <Node Cut="1.7500000000000000e+02" IVar="1" NCoef="0" cType="1" depth="1" nType="0" pos="r" purity="0.0000000000000000e+00" res="0.0000000000000000e+00" rms="0.0000000000000000e+00">
          <Node Cut="8.0000000000000000e+00" IVar="0" NCoef="0" cType="1" depth="2" nType="0" pos="l" purity="0.0000000000000000e+00" res="3.4438520669937134e-02" rms="1.5994575619697571e-01">
            <Node Cut="6.0000000000000000e+00" IVar="6" NCoef="0" cType="1" depth="3" nType="0" pos="l" purity="0.0000000000000000e+00" res="0.0000000000000000e+00" rms="0.0000000000000000e+00">
              <Node Cut="1.0000000000000000e+00" IVar="2" NCoef="0" cType="1" depth="4" nType="0" pos="l" purity="0.0000000000000000e+00" res="2.7690062299370766e-02" rms="1.5207390487194061e-01">
                <Node Cut="0.0000000000000000e+00" IVar="-1" NCoef="0" cType="1" depth="5" nType="-99" pos="l" purity="0.0000000000000000e+00" res="2.0982495043426752e-03" rms="1.4826886355876923e-01" />
                <Node Cut="0.0000000000000000e+00" IVar="-1" NCoef="0" cType="1" depth="5" nType="-99" pos="r" purity="0.0000000000000000e+00" res="4.0724053978919983e-03" rms="1.5839774906635284e-01" />
              </Node>
              <Node Cut="1.0300000000000000e+02" IVar="1" NCoef="0" cType="1" depth="4" nType="0" pos="r" purity="0.0000000000000000e+00" res="0.0000000000000000e+00" rms="0.0000000000000000e+00">
                <Node Cut="0.0000000000000000e+00" IVar="-1" NCoef="0" cType="1" depth="5" nType="-99" pos="l" purity="0.0000000000000000e+00" res="-2.1814607083797455e-02" rms="2.7532437443733215e-01" />
                <Node Cut="0.0000000000000000e+00" IVar="-1" NCoef="0" cType="1" depth="5" nType="-99" pos="r" purity="0.0000000000000000e+00" res="-8.3927083760499954e-03" rms="1.4581023156642914e-01" />
              </Node>
            </Node>
            <Node Cut="1.0000000000000000e+00" IVar="6" NCoef="0" cType="1" depth="3" nType="0" pos="r" purity="0.0000000000000000e+00" res="4.9397688359022141e-02" rms="1.6946186125278473e-01">
              <Node Cut="1.0000000000000000e+01" IVar="0" NCoef="0" cType="1" depth="4" nType="0" pos="l" purity="0.0000000000000000e+00" res="-2.9291534796357155e-02" rms="1.5841023623943329e-01">
                <Node Cut="0.0000000000000000e+00" IVar="-1" NCoef="0" cType="1" depth="5" nType="-99" pos="l" purity="0.0000000000000000e+00" res="-1.4023857191205025e-02" rms="1.5443970263004303e-01" />
                <Node Cut="0.0000000000000000e+00" IVar="-1" NCoef="0" cType="1" depth="5" nType="-99" pos="r" purity="0.0000000000000000e+00" res="5.7761366479098797e-03" rms="9.3978673219680786e-02" />
              </Node>
              <Node Cut="7.0000000000000000e+00" IVar="1" NCoef="0" cType="1" depth="4" nType="0" pos="r" purity="0.0000000000000000e+00" res="0.0000000000000000e+00" rms="0.0000000000000000e+00">
                <Node Cut="0.0000000000000000e+00" IVar="-1" NCoef="0" cType="1" depth="5" nType="-99" pos="l" purity="0.0000000000000000e+00" res="2.0821951329708099e-02" rms="7.0446211099624634e-01" />
                <Node Cut="0.0000000000000000e+00" IVar="-1" NCoef="0" cType="1" depth="5" nType="-99" pos="r" purity="0.0000000000000000e+00" res="5.2078389562666416e-03" rms="1.5493310987949371e-01" />
              </Node>
            </Node>
          </Node>
          <Node Cut="4.0000000000000000e+00" IVar="6" NCoef="0" cType="1" depth="2" nType="0" pos="r" purity="0.0000000000000000e+00" res="1.1561687104403973e-02" rms="1.2440140545368195e-01">
            <Node Cut="2.9500000000000000e+02" IVar="1" NCoef="0" cType="1" depth="3" nType="0" pos="l" purity="0.0000000000000000e+00" res="0.0000000000000000e+00" rms="0.0000000000000000e+00">
              <Node Cut="1.0000000000000000e+00" IVar="3" NCoef="0" cType="1" depth="4" nType="0" pos="l" purity="0.0000000000000000e+00" res="1.2963723391294479e-02" rms="1.0795942693948746e-01">
                <Node Cut="0.0000000000000000e+00" IVar="-1" NCoef="0" cType="1" depth="5" nType="-99" pos="l" purity="0.0000000000000000e+00" res="2.9382896609604359e-03" rms="1.3033692538738251e-01" />
                <Node Cut="0.0000000000000000e+00" IVar="-1" NCoef="0" cType="1" depth="5" nType="-99" pos="r" purity="0.0000000000000000e+00" res="1.2878037523478270e-03" rms="1.2326022237539291e-01" />
              </Node>
              <Node Cut="7.0000000000000000e+00" IVar="0" NCoef="0" cType="1" depth="4" nType="0" pos="r" purity="0.0000000000000000e+00" res="-9.5169628039002419e-03" rms="1.1164835840463638e-01">
                <Node Cut="0.0000000000000000e+00" IVar="-1" NCoef="0" cType="1" depth="5" nType="-99" pos="l" purity="0.0000000000000000e+00" res="-2.6579152327030897e-03" rms="1.1006750166416168e-01" />
                <Node Cut="0.0000000000000000e+00" IVar="-1" NCoef="0" cType="1" depth="5" nType="-99" pos="r" purity="0.0000000000000000e+00" res="-3.9930687307787593e-06" rms="1.1139356344938278e-01" />
              </Node>
            </Node>
            <Node Cut="6.0000000000000000e+00" IVar="6" NCoef="0" cType="1" depth="3" nType="0" pos="r" purity="0.0000000000000000e+00" res="-4.1029958083527163e-05" rms="1.2018708139657974e-01">
              <Node Cut="-2.0000000000000000e+00" IVar="5" NCoef="0" cType="1" depth="4" nType="0" pos="l" purity="0.0000000000000000e+00" res="2.6281618047505617e-03" rms="1.1894430220127106e-01">
                <Node Cut="0.0000000000000000e+00" IVar="-1" NCoef="0" cType="1" depth="5" nType="-99" pos="l" purity="0.0000000000000000e+00" res="-1.8603323260322213e-03" rms="1.1521023511886597e-01" />
                <Node Cut="0.0000000000000000e+00" IVar="-1" NCoef="0" cType="1" depth="5" nType="-99" pos="r" purity="0.0000000000000000e+00" res="6.1056460253894329e-04" rms="1.1918485909700394e-01" />
              </Node>
              <Node Cut="7.0000000000000000e+00" IVar="6" NCoef="0" cType="1" depth="4" nType="0" pos="r" purity="0.0000000000000000e+00" res="-3.1065542250871658e-02" rms="1.4134390652179718e-01">
                <Node Cut="0.0000000000000000e+00" IVar="-1" NCoef="0" cType="1" depth="5" nType="-99" pos="l" purity="0.0000000000000000e+00" res="-2.4126558564603329e-03" rms="1.3105373084545135e-01" />
                <Node Cut="0.0000000000000000e+00" IVar="-1" NCoef="0" cType="1" depth="5" nType="-99" pos="r" purity="0.0000000000000000e+00" res="-6.6410093568265438e-03" rms="1.7904824018478394e-01" />
              </Node>
            </Node>
          </Node>
        </Node>
      </Node>
    </BinaryTree>
    