<?xml version="1.0"?>
<BinaryTree boostWeight="1.0000000000000000e+00" itree="255" type="DecisionTree">
      <Node Cut="1.0000000000000000e+00" IVar="4" NCoef="0" cType="1" depth="0" nType="0" pos="s" purity="0.0000000000000000e+00" res="-1.6933007282204926e-04" rms="2.4687790870666504e-01">
        <Node Cut="-1.3000000000000000e+01" IVar="2" NCoef="0" cType="1" depth="1" nType="0" pos="l" purity="0.0000000000000000e+00" res="0.0000000000000000e+00" rms="0.0000000000000000e+00">
          <Node Cut="-1.0000000000000000e+00" IVar="5" NCoef="0" cType="1" depth="2" nType="0" pos="l" purity="0.0000000000000000e+00" res="0.0000000000000000e+00" rms="0.0000000000000000e+00">
            <Node Cut="2.4000000000000000e+01" IVar="1" NCoef="0" cType="1" depth="3" nType="0" pos="l" purity="0.0000000000000000e+00" res="0.0000000000000000e+00" rms="0.0000000000000000e+00">
              <Node Cut="-1.3000000000000000e+01" IVar="3" NCoef="0" cType="1" depth="4" nType="0" pos="l" purity="0.0000000000000000e+00" res="0.0000000000000000e+00" rms="1.1228793859481812e-01">
                <Node Cut="0.0000000000000000e+00" IVar="-1" NCoef="0" cType="1" depth="5" nType="-99" pos="l" purity="0.0000000000000000e+00" res="2.5935424491763115e-04" rms="2.8232905268669128e-01" />
                <Node Cut="0.0000000000000000e+00" IVar="-1" NCoef="0" cType="1" depth="5" nType="-99" pos="r" purity="0.0000000000000000e+00" res="9.1030290350317955e-03" rms="4.4884839653968811e-01" />
              </Node>
              <Node Cut="5.0000000000000000e+00" IVar="0" NCoef="0" cType="1" depth="4" nType="0" pos="r" purity="0.0000000000000000e+00" res="-2.9146930202841759e-02" rms="2.6376852393150330e-01">
                <Node Cut="0.0000000000000000e+00" IVar="-1" NCoef="0" cType="1" depth="5" nType="-99" pos="l" purity="0.0000000000000000e+00" res="-3.4117342438548803e-03" rms="2.5291383266448975e-01" />
                <Node Cut="0.0000000000000000e+00" IVar="-1" NCoef="0" cType="1" depth="5" nType="-99" pos="r" purity="0.0000000000000000e+00" res="1.1260526953265071e-03" rms="3.3665192127227783e-01" />
              </Node>
            </Node>
            <Node Cut="1.0000000000000000e+00" IVar="8" NCoef="0" cType="1" depth="3" nType="0" pos="r" purity="0.0000000000000000e+00" res="1.2340742396190763e-03" rms="1.6904498636722565e-01">
              <Node Cut="6.0000000000000000e+00" IVar="0" NCoef="0" cType="1" depth="4" nType="0" pos="l" purity="0.0000000000000000e+00" res="1.6254372894763947e-03" rms="2.8150385618209839e-01">
                <Node Cut="0.0000000000000000e+00" IVar="-1" NCoef="0" cType="1" depth="5" nType="-99" pos="l" purity="0.0000000000000000e+00" res="3.0820711981505156e-04" rms="2.8541639447212219e-01" />
                <Node Cut="0.0000000000000000e+00" IVar="-1" NCoef="0" cType="1" depth="5" nType="-99" pos="r" purity="0.0000000000000000e+00" res="-3.9614629349671304e-04" rms="2.6589009165763855e-01" />
              </Node>
              <Node Cut="4.0000000000000000e+00" IVar="6" NCoef="0" cType="1" depth="4" nType="0" pos="r" purity="0.0000000000000000e+00" res="5.0611454993486404e-02" rms="4.3739995360374451e-01">
                <Node Cut="0.0000000000000000e+00" IVar="-1" NCoef="0" cType="1" depth="5" nType="-99" pos="l" purity="0.0000000000000000e+00" res="1.4875023625791073e-03" rms="3.2792556285858154e-01" />
                <Node Cut="0.0000000000000000e+00" IVar="-1" NCoef="0" cType="1" depth="5" nType="-99" pos="r" purity="0.0000000000000000e+00" res="1.4254298061132431e-02" rms="6.2627220153808594e-01" />
              </Node>
            </Node>
          </Node>
          <Node Cut="-1.1000000000000000e+01" IVar="2" NCoef="0" cType="1" depth="2" nType="0" pos="r" purity="0.0000000000000000e+00" res="0.0000000000000000e+00" rms="0.0000000000000000e+00">
            <Node Cut="1.0000000000000000e+00" IVar="8" NCoef="0" cType="1" depth="3" nType="0" pos="l" purity="0.0000000000000000e+00" res="-2.3144733160734177e-02" rms="2.5938570499420166e-01">
              <Node Cut="4.0000000000000000e+00" IVar="0" NCoef="0" cType="1" depth="4" nType="0" pos="l" purity="0.0000000000000000e+00" res="-5.3474932909011841e-02" rms="4.7527599334716797e-01">
                <Node Cut="0.0000000000000000e+00" IVar="-1" NCoef="0" cType="1" depth="5" nType="-99" pos="l" purity="0.0000000000000000e+00" res="-9.9365990608930588e-03" rms="5.4942488670349121e-01" />
                <Node Cut="0.0000000000000000e+00" IVar="-1" NCoef="0" cType="1" depth="5" nType="-99" pos="r" purity="0.0000000000000000e+00" res="-2.9701695311814547e-03" rms="4.2996567487716675e-01" />
              </Node>
              <Node Cut="1.2000000000000000e+01" IVar="1" NCoef="0" cType="1" depth="4" nType="0" pos="r" purity="0.0000000000000000e+00" res="0.0000000000000000e+00" rms="0.0000000000000000e+00">
                <Node Cut="0.0000000000000000e+00" IVar="-1" NCoef="0" cType="1" depth="5" nType="-99" pos="l" purity="0.0000000000000000e+00" res="4.0301497210748494e-04" rms="5.9729814529418945e-01" />
                <Node Cut="0.0000000000000000e+00" IVar="-1" NCoef="0" cType="1" depth="5" nType="-99" pos="r" purity="0.0000000000000000e+00" res="1.3197723776102066e-02" rms="5.7599365711212158e-01" />
              </Node>
            </Node>
            <Node Cut="-1.0000000000000000e+01" IVar="2" NCoef="0" cType="1" depth="3" nType="0" pos="r" purity="0.0000000000000000e+00" res="0.0000000000000000e+00" rms="0.0000000000000000e+00">
              <Node Cut="9.0000000000000000e+00" IVar="0" NCoef="0" cType="1" depth="4" nType="0" pos="l" purity="0.0000000000000000e+00" res="9.5724962651729584e-02" rms="6.4086598157882690e-01">
                <Node Cut="0.0000000000000000e+00" IVar="-1" NCoef="0" cType="1" depth="5" nType="-99" pos="l" purity="0.0000000000000000e+00" res="2.0196903496980667e-02" rms="7.3339676856994629e-01" />
                <Node Cut="0.0000000000000000e+00" IVar="-1" NCoef="0" cType="1" depth="5" nType="-99" pos="r" purity="0.0000000000000000e+00" res="-8.1043066456913948e-03" rms="3.8614919781684875e-01" />
              </Node>
              <Node Cut="4.0000000000000000e+00" IVar="6" NCoef="0" cType="1" depth="4" nType="0" pos="r" purity="0.0000000000000000e+00" res="-1.3761785812675953e-03" rms="4.0163871645927429e-01">
                <Node Cut="0.0000000000000000e+00" IVar="-1" NCoef="0" cType="1" depth="5" nType="-99" pos="l" purity="0.0000000000000000e+00" res="1.0084224777529016e-04" rms="2.4913752079010010e-01" />
                <Node Cut="0.0000000000000000e+00" IVar="-1" NCoef="0" cType="1" depth="5" nType="-99" pos="r" purity="0.0000000000000000e+00" res="-2.8990229475311935e-04" rms="4.9758502840995789e-01" />
              </Node>
            </Node>
          </Node>
        </Node>
        <Node Cut="4.0000000000000000e+00" IVar="6" NCoef="0" cType="1" depth="1" nType="0" pos="r" purity="0.0000000000000000e+00" res="6.2236387748271227e-04" rms="3.7220543622970581e-01">
          <Node Cut="2.0000000000000000e+00" IVar="0" NCoef="0" cType="1" depth="2" nType="0" pos="l" purity="0.0000000000000000e+00" res="-4.6230896259658039e-04" rms="2.5990182161331177e-01">
            <Node Cut="5.1000000000000000e+01" IVar="1" NCoef="0" cType="1" depth="3" nType="0" pos="l" purity="0.0000000000000000e+00" res="0.0000000000000000e+00" rms="0.0000000000000000e+00">
              <Node Cut="-5.0000000000000000e+00" IVar="2" NCoef="0" cType="1" depth="4" nType="0" pos="l" purity="0.0000000000000000e+00" res="1.9539669156074524e-02" rms="2.2835372388362885e-01">
                <Node Cut="0.0000000000000000e+00" IVar="-1" NCoef="0" cType="1" depth="5" nType="-99" pos="l" purity="0.0000000000000000e+00" res="1.1576321412576362e-04" rms="3.4133961796760559e-01" />
                <Node Cut="0.0000000000000000e+00" IVar="-1" NCoef="0" cType="1" depth="5" nType="-99" pos="r" purity="0.0000000000000000e+00" res="-6.8183261901140213e-03" rms="4.7108882665634155e-01" />
              </Node>
              <Node Cut="9.9000000000000000e+01" IVar="1" NCoef="0" cType="1" depth="4" nType="0" pos="r" purity="0.0000000000000000e+00" res="0.0000000000000000e+00" rms="0.0000000000000000e+00">
                <Node Cut="0.0000000000000000e+00" IVar="-1" NCoef="0" cType="1" depth="5" nType="-99" pos="l" purity="0.0000000000000000e+00" res="1.5065225306898355e-04" rms="3.0902719497680664e-01" />
                <Node Cut="0.0000000000000000e+00" IVar="-1" NCoef="0" cType="1" depth="5" nType="-99" pos="r" purity="0.0000000000000000e+00" res="2.3066157009452581e-03" rms="2.4695867300033569e-01" />
              </Node>
            </Node>
            <Node Cut="-3.3000000000000000e+01" IVar="2" NCoef="0" cType="1" depth="3" nType="0" pos="r" purity="0.0000000000000000e+00" res="0.0000000000000000e+00" rms="0.0000000000000000e+00">
              <Node Cut="3.0000000000000000e+00" IVar="6" NCoef="0" cType="1" depth="4" nType="0" pos="l" purity="0.0000000000000000e+00" res="1.1306884698569775e-04" rms="1.7836292088031769e-01">
                <Node Cut="0.0000000000000000e+00" IVar="-1" NCoef="0" cType="1" depth="5" nType="-99" pos="l" purity="0.0000000000000000e+00" res="9.1935791715513915e-05" rms="1.7354057729244232e-01" />
                <Node Cut="0.0000000000000000e+00" IVar="-1" NCoef="0" cType="1" depth="5" nType="-99" pos="r" purity="0.0000000000000000e+00" res="-1.7370424466207623e-03" rms="2.6979112625122070e-01" />
              </Node>
              <Node Cut="3.0000000000000000e+00" IVar="6" NCoef="0" cType="1" depth="4" nType="0" pos="r" purity="0.0000000000000000e+00" res="-2.1990256209392101e-04" rms="2.2279340028762817e-01">
                <Node Cut="0.0000000000000000e+00" IVar="-1" NCoef="0" cType="1" depth="5" nType="-99" pos="l" purity="0.0000000000000000e+00" res="-1.2970689567737281e-04" rms="2.0336352288722992e-01" />
                <Node Cut="0.0000000000000000e+00" IVar="-1" NCoef="0" cType="1" depth="5" nType="-99" pos="r" purity="0.0000000000000000e+00" res="4.5486059389077127e-04" rms="3.4467655420303345e-01" />
              </Node>
            </Node>
          </Node>
          <Node Cut="-6.0000000000000000e+00" IVar="2" NCoef="0" cType="1" depth="2" nType="0" pos="r" purity="0.0000000000000000e+00" res="0.0000000000000000e+00" rms="0.0000000000000000e+00">
            <Node Cut="-1.8000000000000000e+01" IVar="2" NCoef="0" cType="1" depth="3" nType="0" pos="l" purity="0.0000000000000000e+00" res="0.0000000000000000e+00" rms="0.0000000000000000e+00">
              <Node Cut="-1.9000000000000000e+01" IVar="2" NCoef="0" cType="1" depth="4" nType="0" pos="l" purity="0.0000000000000000e+00" res="0.0000000000000000e+00" rms="0.0000000000000000e+00">
                <Node Cut="0.0000000000000000e+00" IVar="-1" NCoef="0" cType="1" depth="5" nType="-99" pos="l" purity="0.0000000000000000e+00" res="2.2169887961354107e-04" rms="3.9040428400039673e-01" />
                <Node Cut="0.0000000000000000e+00" IVar="-1" NCoef="0" cType="1" depth="5" nType="-99" pos="r" purity="0.0000000000000000e+00" res="1.9085731357336044e-02" rms="7.0397508144378662e-01" />
              </Node>
              <Node Cut="3.0000000000000000e+00" IVar="1" NCoef="0" cType="1" depth="4" nType="0" pos="r" purity="0.0000000000000000e+00" res="0.0000000000000000e+00" rms="0.0000000000000000e+00">
                <Node Cut="0.0000000000000000e+00" IVar="-1" NCoef="0" cType="1" depth="5" nType="-99" pos="l" purity="0.0000000000000000e+00" res="2.7716415934264660e-03" rms="8.1089210510253906e-01" />
                <Node Cut="0.0000000000000000e+00" IVar="-1" NCoef="0" cType="1" depth="5" nType="-99" pos="r" purity="0.0000000000000000e+00" res="-1.3218728126958013e-03" rms="4.4575777649879456e-01" />
              </Node>
            </Node>
            <Node Cut="1.1000000000000000e+01" IVar="3" NCoef="0" cType="1" depth="3" nType="0" pos="r" purity="0.0000000000000000e+00" res="4.7681868076324463e-01" rms="6.7555975914001465e-01">
              <Node Cut="6.0000000000000000e+00" IVar="6" NCoef="0" cType="1" depth="4" nType="0" pos="l" purity="0.0000000000000000e+00" res="1.9666047766804695e-02" rms="8.7049722671508789e-01">
                <Node Cut="0.0000000000000000e+00" IVar="-1" NCoef="0" cType="1" depth="5" nType="-99" pos="l" purity="0.0000000000000000e+00" res="2.5408819783478975e-03" rms="1.0150518417358398e+00" />
                <Node Cut="0.0000000000000000e+00" IVar="-1" NCoef="0" cType="1" depth="5" nType="-99" pos="r" purity="0.0000000000000000e+00" res="-3.3316671848297119e-02" rms="8.9624941349029541e-01" />
              </Node>
              <Node Cut="2.0000000000000000e+00" IVar="2" NCoef="0" cType="1" depth="4" nType="0" pos="r" purity="0.0000000000000000e+00" res="0.0000000000000000e+00" rms="0.0000000000000000e+00">
                <Node Cut="0.0000000000000000e+00" IVar="-1" NCoef="0" cType="1" depth="5" nType="-99" pos="l" purity="0.0000000000000000e+00" res="-1.2271405430510640e-03" rms="5.2479267120361328e-01" />
                <Node Cut="0.0000000000000000e+00" IVar="-1" NCoef="0" cType="1" depth="5" nType="-99" pos="r" purity="0.0000000000000000e+00" res="4.4534672633744776e-04" rms="4.2134055495262146e-01" />
              </Node>
            </Node>
          </Node>
        </Node>
      </Node>
    </BinaryTree>
    