<?xml version="1.0"?>
<BinaryTree boostWeight="1.0000000000000000e+00" itree="125" type="DecisionTree">
      <Node Cut="1.0000000000000000e+00" IVar="5" NCoef="0" cType="1" depth="0" nType="0" pos="s" purity="0.0000000000000000e+00" res="-7.0176203735172749e-04" rms="2.1362826228141785e-01">
        <Node Cut="1.0000000000000000e+00" IVar="7" NCoef="0" cType="1" depth="1" nType="0" pos="l" purity="0.0000000000000000e+00" res="-1.1075712973251939e-03" rms="2.7866783738136292e-01">
          <Node Cut="3.6000000000000000e+01" IVar="2" NCoef="0" cType="1" depth="2" nType="0" pos="l" purity="0.0000000000000000e+00" res="0.0000000000000000e+00" rms="0.0000000000000000e+00">
            <Node Cut="4.0000000000000000e+00" IVar="8" NCoef="0" cType="1" depth="3" nType="0" pos="l" purity="0.0000000000000000e+00" res="-7.3170050978660583e-02" rms="9.4007527828216553e-01">
              <Node Cut="-1.3000000000000000e+01" IVar="4" NCoef="0" cType="1" depth="4" nType="0" pos="l" purity="0.0000000000000000e+00" res="6.0156476497650146e-01" rms="7.5241863727569580e-01">
                <Node Cut="0.0000000000000000e+00" IVar="-1" NCoef="0" cType="1" depth="5" nType="-99" pos="l" purity="0.0000000000000000e+00" res="-4.7063464298844337e-03" rms="9.2035669088363647e-01" />
                <Node Cut="0.0000000000000000e+00" IVar="-1" NCoef="0" cType="1" depth="5" nType="-99" pos="r" purity="0.0000000000000000e+00" res="-3.4569952636957169e-02" rms="1.0928980112075806e+00" />
              </Node>
              <Node Cut="2.4000000000000000e+01" IVar="0" NCoef="0" cType="1" depth="4" nType="0" pos="r" purity="0.0000000000000000e+00" res="-5.2507296204566956e-02" rms="1.2787338495254517e+00">
                <Node Cut="0.0000000000000000e+00" IVar="-1" NCoef="0" cType="1" depth="5" nType="-99" pos="l" purity="0.0000000000000000e+00" res="-7.6935156248509884e-03" rms="1.2706465721130371e+00" />
                <Node Cut="0.0000000000000000e+00" IVar="-1" NCoef="0" cType="1" depth="5" nType="-99" pos="r" purity="0.0000000000000000e+00" res="3.9910130202770233e-02" rms="1.3421424627304077e+00" />
              </Node>
            </Node>
            <Node Cut="2.0000000000000000e+01" IVar="0" NCoef="0" cType="1" depth="3" nType="0" pos="r" purity="0.0000000000000000e+00" res="-1.1990284547209740e-02" rms="8.4947532415390015e-01">
              <Node Cut="4.0000000000000000e+00" IVar="0" NCoef="0" cType="1" depth="4" nType="0" pos="l" purity="0.0000000000000000e+00" res="-2.8001207858324051e-02" rms="8.3297985792160034e-01">
                <Node Cut="0.0000000000000000e+00" IVar="-1" NCoef="0" cType="1" depth="5" nType="-99" pos="l" purity="0.0000000000000000e+00" res="2.6340058539062738e-03" rms="8.9001029729843140e-01" />
                <Node Cut="0.0000000000000000e+00" IVar="-1" NCoef="0" cType="1" depth="5" nType="-99" pos="r" purity="0.0000000000000000e+00" res="-6.7776069045066833e-03" rms="7.8624987602233887e-01" />
              </Node>
              <Node Cut="4.0000000000000000e+00" IVar="8" NCoef="0" cType="1" depth="4" nType="0" pos="r" purity="0.0000000000000000e+00" res="1.6614666581153870e-01" rms="9.9789822101593018e-01">
                <Node Cut="0.0000000000000000e+00" IVar="-1" NCoef="0" cType="1" depth="5" nType="-99" pos="l" purity="0.0000000000000000e+00" res="4.1066864505410194e-03" rms="7.4359369277954102e-01" />
                <Node Cut="0.0000000000000000e+00" IVar="-1" NCoef="0" cType="1" depth="5" nType="-99" pos="r" purity="0.0000000000000000e+00" res="3.6948062479496002e-02" rms="1.2841209173202515e+00" />
              </Node>
            </Node>
          </Node>
          <Node Cut="-1.4000000000000000e+01" IVar="4" NCoef="0" cType="1" depth="2" nType="0" pos="r" purity="0.0000000000000000e+00" res="0.0000000000000000e+00" rms="0.0000000000000000e+00">
            <Node Cut="2.1000000000000000e+01" IVar="0" NCoef="0" cType="1" depth="3" nType="0" pos="l" purity="0.0000000000000000e+00" res="1.1725024087354541e-03" rms="3.2241758704185486e-01">
              <Node Cut="7.0000000000000000e+00" IVar="0" NCoef="0" cType="1" depth="4" nType="0" pos="l" purity="0.0000000000000000e+00" res="-3.4749391488730907e-04" rms="3.2222488522529602e-01">
                <Node Cut="0.0000000000000000e+00" IVar="-1" NCoef="0" cType="1" depth="5" nType="-99" pos="l" purity="0.0000000000000000e+00" res="2.2863999765831977e-04" rms="3.3957579731941223e-01" />
                <Node Cut="0.0000000000000000e+00" IVar="-1" NCoef="0" cType="1" depth="5" nType="-99" pos="r" purity="0.0000000000000000e+00" res="-6.3189555658027530e-04" rms="2.7882623672485352e-01" />
              </Node>
              <Node Cut="-1.8000000000000000e+01" IVar="4" NCoef="0" cType="1" depth="4" nType="0" pos="r" purity="0.0000000000000000e+00" res="0.0000000000000000e+00" rms="0.0000000000000000e+00">
                <Node Cut="0.0000000000000000e+00" IVar="-1" NCoef="0" cType="1" depth="5" nType="-99" pos="l" purity="0.0000000000000000e+00" res="1.5037482371553779e-03" rms="3.0793988704681396e-01" />
                <Node Cut="0.0000000000000000e+00" IVar="-1" NCoef="0" cType="1" depth="5" nType="-99" pos="r" purity="0.0000000000000000e+00" res="6.4143049530684948e-03" rms="4.9282377958297729e-01" />
              </Node>
            </Node>
            <Node Cut="2.2000000000000000e+01" IVar="0" NCoef="0" cType="1" depth="3" nType="0" pos="r" purity="0.0000000000000000e+00" res="-4.1003595106303692e-03" rms="3.7708520889282227e-01">
              <Node Cut="3.3000000000000000e+01" IVar="2" NCoef="0" cType="1" depth="4" nType="0" pos="l" purity="0.0000000000000000e+00" res="0.0000000000000000e+00" rms="0.0000000000000000e+00">
                <Node Cut="0.0000000000000000e+00" IVar="-1" NCoef="0" cType="1" depth="5" nType="-99" pos="l" purity="0.0000000000000000e+00" res="1.7940863035619259e-03" rms="8.2924413681030273e-01" />
                <Node Cut="0.0000000000000000e+00" IVar="-1" NCoef="0" cType="1" depth="5" nType="-99" pos="r" purity="0.0000000000000000e+00" res="-4.6223049866966903e-04" rms="3.0686458945274353e-01" />
              </Node>
              <Node Cut="2.9000000000000000e+01" IVar="3" NCoef="0" cType="1" depth="4" nType="0" pos="r" purity="0.0000000000000000e+00" res="0.0000000000000000e+00" rms="0.0000000000000000e+00">
                <Node Cut="0.0000000000000000e+00" IVar="-1" NCoef="0" cType="1" depth="5" nType="-99" pos="l" purity="0.0000000000000000e+00" res="-6.0312440618872643e-03" rms="6.2412887811660767e-01" />
                <Node Cut="0.0000000000000000e+00" IVar="-1" NCoef="0" cType="1" depth="5" nType="-99" pos="r" purity="0.0000000000000000e+00" res="-7.1625370765104890e-04" rms="3.2682460546493530e-01" />
              </Node>
            </Node>
          </Node>
        </Node>
        <Node Cut="-1.3500000000000000e+02" IVar="4" NCoef="0" cType="1" depth="1" nType="0" pos="r" purity="0.0000000000000000e+00" res="0.0000000000000000e+00" rms="0.0000000000000000e+00">
          <Node Cut="3.0000000000000000e+00" IVar="7" NCoef="0" cType="1" depth="2" nType="0" pos="l" purity="0.0000000000000000e+00" res="-4.5188353396952152e-03" rms="2.3492552340030670e-01">
            <Node Cut="1.0000000000000000e+00" IVar="7" NCoef="0" cType="1" depth="3" nType="0" pos="l" purity="0.0000000000000000e+00" res="-7.2891837917268276e-03" rms="2.7544397115707397e-01">
              <Node Cut="2.5000000000000000e+01" IVar="2" NCoef="0" cType="1" depth="4" nType="0" pos="l" purity="0.0000000000000000e+00" res="0.0000000000000000e+00" rms="0.0000000000000000e+00">
                <Node Cut="0.0000000000000000e+00" IVar="-1" NCoef="0" cType="1" depth="5" nType="-99" pos="l" purity="0.0000000000000000e+00" res="6.3260227441787720e-02" rms="1.7330182790756226e+00" />
                <Node Cut="0.0000000000000000e+00" IVar="-1" NCoef="0" cType="1" depth="5" nType="-99" pos="r" purity="0.0000000000000000e+00" res="-1.5376535244286060e-02" rms="6.9080054759979248e-01" />
              </Node>
              <Node Cut="1.0000000000000000e+00" IVar="11" NCoef="0" cType="1" depth="4" nType="0" pos="r" purity="0.0000000000000000e+00" res="-4.5167021453380585e-03" rms="2.2546084225177765e-01">
                <Node Cut="0.0000000000000000e+00" IVar="-1" NCoef="0" cType="1" depth="5" nType="-99" pos="l" purity="0.0000000000000000e+00" res="-1.8179289763793349e-03" rms="3.6391523480415344e-01" />
                <Node Cut="0.0000000000000000e+00" IVar="-1" NCoef="0" cType="1" depth="5" nType="-99" pos="r" purity="0.0000000000000000e+00" res="3.7594861350953579e-03" rms="5.1555550098419189e-01" />
              </Node>
            </Node>
            <Node Cut="2.2000000000000000e+01" IVar="0" NCoef="0" cType="1" depth="3" nType="0" pos="r" purity="0.0000000000000000e+00" res="6.1517087742686272e-03" rms="1.6269269585609436e-01">
              <Node Cut="4.0000000000000000e+00" IVar="2" NCoef="0" cType="1" depth="4" nType="0" pos="l" purity="0.0000000000000000e+00" res="0.0000000000000000e+00" rms="0.0000000000000000e+00">
                <Node Cut="0.0000000000000000e+00" IVar="-1" NCoef="0" cType="1" depth="5" nType="-99" pos="l" purity="0.0000000000000000e+00" res="6.6251701116561890e-01" rms="7.2151935100555420e-01" />
                <Node Cut="0.0000000000000000e+00" IVar="-1" NCoef="0" cType="1" depth="5" nType="-99" pos="r" purity="0.0000000000000000e+00" res="1.0639734682627022e-04" rms="1.6220107674598694e-01" />
              </Node>
              <Node Cut="8.7000000000000000e+01" IVar="2" NCoef="0" cType="1" depth="4" nType="0" pos="r" purity="0.0000000000000000e+00" res="0.0000000000000000e+00" rms="0.0000000000000000e+00">
                <Node Cut="0.0000000000000000e+00" IVar="-1" NCoef="0" cType="1" depth="5" nType="-99" pos="l" purity="0.0000000000000000e+00" res="-4.3598079355433583e-04" rms="1.5385656058788300e-01" />
                <Node Cut="0.0000000000000000e+00" IVar="-1" NCoef="0" cType="1" depth="5" nType="-99" pos="r" purity="0.0000000000000000e+00" res="8.2402238622307777e-03" rms="1.4539797604084015e-01" />
              </Node>
            </Node>
          </Node>
          <Node Cut="1.0000000000000000e+00" IVar="1" NCoef="0" cType="1" depth="2" nType="0" pos="r" purity="0.0000000000000000e+00" res="-4.6093601849861443e-04" rms="2.1458417177200317e-01">
            <Node Cut="1.0000000000000000e+01" IVar="0" NCoef="0" cType="1" depth="3" nType="0" pos="l" purity="0.0000000000000000e+00" res="4.0942183695733547e-03" rms="3.6075216531753540e-01">
              <Node Cut="2.1000000000000000e+01" IVar="3" NCoef="0" cType="1" depth="4" nType="0" pos="l" purity="0.0000000000000000e+00" res="4.0279269218444824e-01" rms="5.1179784536361694e-01">
                <Node Cut="0.0000000000000000e+00" IVar="-1" NCoef="0" cType="1" depth="5" nType="-99" pos="l" purity="0.0000000000000000e+00" res="2.6590833440423012e-03" rms="1.0739198923110962e+00" />
                <Node Cut="0.0000000000000000e+00" IVar="-1" NCoef="0" cType="1" depth="5" nType="-99" pos="r" purity="0.0000000000000000e+00" res="9.6326431958004832e-05" rms="3.2302531599998474e-01" />
              </Node>
              <Node Cut="2.0500000000000000e+02" IVar="2" NCoef="0" cType="1" depth="4" nType="0" pos="r" purity="0.0000000000000000e+00" res="0.0000000000000000e+00" rms="0.0000000000000000e+00">
                <Node Cut="0.0000000000000000e+00" IVar="-1" NCoef="0" cType="1" depth="5" nType="-99" pos="l" purity="0.0000000000000000e+00" res="5.4122242145240307e-03" rms="3.8487076759338379e-01" />
                <Node Cut="0.0000000000000000e+00" IVar="-1" NCoef="0" cType="1" depth="5" nType="-99" pos="r" purity="0.0000000000000000e+00" res="8.0016243737190962e-04" rms="1.4758180081844330e-01" />
              </Node>
            </Node>
            <Node Cut="1.5800000000000000e+02" IVar="2" NCoef="0" cType="1" depth="3" nType="0" pos="r" purity="0.0000000000000000e+00" res="0.0000000000000000e+00" rms="0.0000000000000000e+00">
              <Node Cut="-3.8000000000000000e+01" IVar="4" NCoef="0" cType="1" depth="4" nType="0" pos="l" purity="0.0000000000000000e+00" res="1.0670787096023560e-01" rms="4.3274465203285217e-01">
                <Node Cut="0.0000000000000000e+00" IVar="-1" NCoef="0" cType="1" depth="5" nType="-99" pos="l" purity="0.0000000000000000e+00" res="-1.8080387962982059e-03" rms="2.5579452514648438e-01" />
                <Node Cut="0.0000000000000000e+00" IVar="-1" NCoef="0" cType="1" depth="5" nType="-99" pos="r" purity="0.0000000000000000e+00" res="1.8721909145824611e-04" rms="3.7935069203376770e-01" />
              </Node>
              <Node Cut="2.1000000000000000e+01" IVar="0" NCoef="0" cType="1" depth="4" nType="0" pos="r" purity="0.0000000000000000e+00" res="-4.1362378746271133e-02" rms="1.7881536483764648e-01">
                <Node Cut="0.0000000000000000e+00" IVar="-1" NCoef="0" cType="1" depth="5" nType="-99" pos="l" purity="0.0000000000000000e+00" res="-5.1400572992861271e-03" rms="1.5617910027503967e-01" />
                <Node Cut="0.0000000000000000e+00" IVar="-1" NCoef="0" cType="1" depth="5" nType="-99" pos="r" purity="0.0000000000000000e+00" res="3.6052195355296135e-03" rms="2.8928378224372864e-01" />
              </Node>
            </Node>
          </Node>
        </Node>
      </Node>
    </BinaryTree>
    