<?xml version="1.0"?>
<BinaryTree boostWeight="1.0000000000000000e+00" itree="183" type="DecisionTree">
      <Node Cut="2.7000000000000000e+01" IVar="1" NCoef="0" cType="1" depth="0" nType="0" pos="s" purity="0.0000000000000000e+00" res="0.0000000000000000e+00" rms="0.0000000000000000e+00">
        <Node Cut="2.0000000000000000e+00" IVar="0" NCoef="0" cType="1" depth="1" nType="0" pos="l" purity="0.0000000000000000e+00" res="-8.0258533125743270e-04" rms="1.0895758867263794e+00">
          <Node Cut="4.0000000000000000e+00" IVar="6" NCoef="0" cType="1" depth="2" nType="0" pos="l" purity="0.0000000000000000e+00" res="0.0000000000000000e+00" rms="0.0000000000000000e+00">
            <Node Cut="1.1000000000000000e+01" IVar="1" NCoef="0" cType="1" depth="3" nType="0" pos="l" purity="0.0000000000000000e+00" res="0.0000000000000000e+00" rms="0.0000000000000000e+00">
              <Node Cut="1.0000000000000000e+00" IVar="3" NCoef="0" cType="1" depth="4" nType="0" pos="l" purity="0.0000000000000000e+00" res="0.0000000000000000e+00" rms="0.0000000000000000e+00">
                <Node Cut="0.0000000000000000e+00" IVar="-1" NCoef="0" cType="1" depth="5" nType="-99" pos="l" purity="0.0000000000000000e+00" res="-2.3278638720512390e-02" rms="6.1768126487731934e-01" />
                <Node Cut="0.0000000000000000e+00" IVar="-1" NCoef="0" cType="1" depth="5" nType="-99" pos="r" purity="0.0000000000000000e+00" res="4.2163394391536713e-03" rms="8.4753745794296265e-01" />
              </Node>
              <Node Cut="-1.0000000000000000e+00" IVar="5" NCoef="0" cType="1" depth="4" nType="0" pos="r" purity="0.0000000000000000e+00" res="0.0000000000000000e+00" rms="0.0000000000000000e+00">
                <Node Cut="0.0000000000000000e+00" IVar="-1" NCoef="0" cType="1" depth="5" nType="-99" pos="l" purity="0.0000000000000000e+00" res="-4.2526606470346451e-02" rms="2.8582069277763367e-01" />
                <Node Cut="0.0000000000000000e+00" IVar="-1" NCoef="0" cType="1" depth="5" nType="-99" pos="r" purity="0.0000000000000000e+00" res="4.3081687763333321e-03" rms="5.7669049501419067e-01" />
              </Node>
            </Node>
            <Node Cut="-1.0000000000000000e+00" IVar="5" NCoef="0" cType="1" depth="3" nType="0" pos="r" purity="0.0000000000000000e+00" res="0.0000000000000000e+00" rms="0.0000000000000000e+00">
              <Node Cut="2.2000000000000000e+01" IVar="1" NCoef="0" cType="1" depth="4" nType="0" pos="l" purity="0.0000000000000000e+00" res="0.0000000000000000e+00" rms="0.0000000000000000e+00">
                <Node Cut="0.0000000000000000e+00" IVar="-1" NCoef="0" cType="1" depth="5" nType="-99" pos="l" purity="0.0000000000000000e+00" res="2.3591814562678337e-02" rms="1.0824840068817139e+00" />
                <Node Cut="0.0000000000000000e+00" IVar="-1" NCoef="0" cType="1" depth="5" nType="-99" pos="r" purity="0.0000000000000000e+00" res="3.0250394344329834e-01" rms="1.0843816995620728e+00" />
              </Node>
              <Node Cut="5.0000000000000000e+00" IVar="6" NCoef="0" cType="1" depth="4" nType="0" pos="r" purity="0.0000000000000000e+00" res="0.0000000000000000e+00" rms="0.0000000000000000e+00">
                <Node Cut="0.0000000000000000e+00" IVar="-1" NCoef="0" cType="1" depth="5" nType="-99" pos="l" purity="0.0000000000000000e+00" res="3.5306175705045462e-03" rms="1.3900223970413208e+00" />
                <Node Cut="0.0000000000000000e+00" IVar="-1" NCoef="0" cType="1" depth="5" nType="-99" pos="r" purity="0.0000000000000000e+00" res="-2.5267275050282478e-03" rms="1.1303989887237549e+00" />
              </Node>
            </Node>
          </Node>
          <Node Cut="3.0000000000000000e+00" IVar="0" NCoef="0" cType="1" depth="2" nType="0" pos="r" purity="0.0000000000000000e+00" res="-1.5991932014003396e-03" rms="1.0752333402633667e+00">
            <Node Cut="2.6000000000000000e+01" IVar="1" NCoef="0" cType="1" depth="3" nType="0" pos="l" purity="0.0000000000000000e+00" res="0.0000000000000000e+00" rms="0.0000000000000000e+00">
              <Node Cut="2.5000000000000000e+01" IVar="1" NCoef="0" cType="1" depth="4" nType="0" pos="l" purity="0.0000000000000000e+00" res="0.0000000000000000e+00" rms="0.0000000000000000e+00">
                <Node Cut="0.0000000000000000e+00" IVar="-1" NCoef="0" cType="1" depth="5" nType="-99" pos="l" purity="0.0000000000000000e+00" res="-6.1790214385837317e-04" rms="1.1265453100204468e+00" />
                <Node Cut="0.0000000000000000e+00" IVar="-1" NCoef="0" cType="1" depth="5" nType="-99" pos="r" purity="0.0000000000000000e+00" res="3.8619264960289001e-01" rms="9.5900160074234009e-01" />
              </Node>
              <Node Cut="0.0000000000000000e+00" IVar="4" NCoef="0" cType="1" depth="4" nType="0" pos="r" purity="0.0000000000000000e+00" res="0.0000000000000000e+00" rms="0.0000000000000000e+00">
                <Node Cut="0.0000000000000000e+00" IVar="-1" NCoef="0" cType="1" depth="5" nType="-99" pos="l" purity="0.0000000000000000e+00" res="9.2687373980879784e-03" rms="6.3397759199142456e-01" />
                <Node Cut="0.0000000000000000e+00" IVar="-1" NCoef="0" cType="1" depth="5" nType="-99" pos="r" purity="0.0000000000000000e+00" res="-1.5089688822627068e-02" rms="6.9176453351974487e-01" />
              </Node>
            </Node>
            <Node Cut="1.0000000000000000e+00" IVar="2" NCoef="0" cType="1" depth="3" nType="0" pos="r" purity="0.0000000000000000e+00" res="-2.3001823865342885e-04" rms="7.3299008607864380e-01">
              <Node Cut="5.0000000000000000e+00" IVar="6" NCoef="0" cType="1" depth="4" nType="0" pos="l" purity="0.0000000000000000e+00" res="-4.0635918267071247e-03" rms="1.0484157800674438e+00">
                <Node Cut="0.0000000000000000e+00" IVar="-1" NCoef="0" cType="1" depth="5" nType="-99" pos="l" purity="0.0000000000000000e+00" res="-1.1266982182860374e-03" rms="1.0162538290023804e+00" />
                <Node Cut="0.0000000000000000e+00" IVar="-1" NCoef="0" cType="1" depth="5" nType="-99" pos="r" purity="0.0000000000000000e+00" res="2.5739842094480991e-03" rms="1.1865006685256958e+00" />
              </Node>
              <Node Cut="5.0000000000000000e+00" IVar="6" NCoef="0" cType="1" depth="4" nType="0" pos="r" purity="0.0000000000000000e+00" res="5.4097268730401993e-03" rms="1.0721477270126343e+00">
                <Node Cut="0.0000000000000000e+00" IVar="-1" NCoef="0" cType="1" depth="5" nType="-99" pos="l" purity="0.0000000000000000e+00" res="1.2365257134661078e-03" rms="1.0755749940872192e+00" />
                <Node Cut="0.0000000000000000e+00" IVar="-1" NCoef="0" cType="1" depth="5" nType="-99" pos="r" purity="0.0000000000000000e+00" res="-3.6640476901084185e-03" rms="1.1295473575592041e+00" />
              </Node>
            </Node>
          </Node>
        </Node>
        <Node Cut="4.1000000000000000e+01" IVar="1" NCoef="0" cType="1" depth="1" nType="0" pos="r" purity="0.0000000000000000e+00" res="0.0000000000000000e+00" rms="0.0000000000000000e+00">
          <Node Cut="0.0000000000000000e+00" IVar="4" NCoef="0" cType="1" depth="2" nType="0" pos="l" purity="0.0000000000000000e+00" res="0.0000000000000000e+00" rms="2.9887866973876953e-01">
            <Node Cut="-3.0000000000000000e+00" IVar="5" NCoef="0" cType="1" depth="3" nType="0" pos="l" purity="0.0000000000000000e+00" res="0.0000000000000000e+00" rms="3.5606440901756287e-01">
              <Node Cut="3.3000000000000000e+01" IVar="1" NCoef="0" cType="1" depth="4" nType="0" pos="l" purity="0.0000000000000000e+00" res="-3.6089414358139038e-01" rms="7.8457891941070557e-01">
                <Node Cut="0.0000000000000000e+00" IVar="-1" NCoef="0" cType="1" depth="5" nType="-99" pos="l" purity="0.0000000000000000e+00" res="1.4136590063571930e-01" rms="2.6581833362579346e+00" />
                <Node Cut="0.0000000000000000e+00" IVar="-1" NCoef="0" cType="1" depth="5" nType="-99" pos="r" purity="0.0000000000000000e+00" res="-4.0259804576635361e-02" rms="6.4828890562057495e-01" />
              </Node>
              <Node Cut="-1.0000000000000000e+00" IVar="5" NCoef="0" cType="1" depth="4" nType="0" pos="r" purity="0.0000000000000000e+00" res="2.8448052704334259e-02" rms="5.6923425197601318e-01">
                <Node Cut="0.0000000000000000e+00" IVar="-1" NCoef="0" cType="1" depth="5" nType="-99" pos="l" purity="0.0000000000000000e+00" res="5.9884391725063324e-02" rms="1.4918287992477417e+00" />
                <Node Cut="0.0000000000000000e+00" IVar="-1" NCoef="0" cType="1" depth="5" nType="-99" pos="r" purity="0.0000000000000000e+00" res="2.5932923890650272e-03" rms="5.7308715581893921e-01" />
              </Node>
            </Node>
            <Node Cut="2.0000000000000000e+00" IVar="5" NCoef="0" cType="1" depth="3" nType="0" pos="r" purity="0.0000000000000000e+00" res="0.0000000000000000e+00" rms="0.0000000000000000e+00">
              <Node Cut="1.0000000000000000e+00" IVar="4" NCoef="0" cType="1" depth="4" nType="0" pos="l" purity="0.0000000000000000e+00" res="-9.1792736202478409e-04" rms="5.3254812955856323e-01">
                <Node Cut="0.0000000000000000e+00" IVar="-1" NCoef="0" cType="1" depth="5" nType="-99" pos="l" purity="0.0000000000000000e+00" res="-8.4331154357641935e-04" rms="6.3063609600067139e-01" />
                <Node Cut="0.0000000000000000e+00" IVar="-1" NCoef="0" cType="1" depth="5" nType="-99" pos="r" purity="0.0000000000000000e+00" res="1.7542975256219506e-03" rms="5.7468277215957642e-01" />
              </Node>
              <Node Cut="3.7000000000000000e+01" IVar="1" NCoef="0" cType="1" depth="4" nType="0" pos="r" purity="0.0000000000000000e+00" res="1.8065299093723297e-01" rms="1.3005541563034058e+00">
                <Node Cut="0.0000000000000000e+00" IVar="-1" NCoef="0" cType="1" depth="5" nType="-99" pos="l" purity="0.0000000000000000e+00" res="7.2944401763379574e-03" rms="1.2748903036117554e+00" />
                <Node Cut="0.0000000000000000e+00" IVar="-1" NCoef="0" cType="1" depth="5" nType="-99" pos="r" purity="0.0000000000000000e+00" res="7.8177288174629211e-02" rms="1.3058891296386719e+00" />
              </Node>
            </Node>
          </Node>
          <Node Cut="4.3000000000000000e+01" IVar="1" NCoef="0" cType="1" depth="2" nType="0" pos="r" purity="0.0000000000000000e+00" res="0.0000000000000000e+00" rms="0.0000000000000000e+00">
            <Node Cut="1.0000000000000000e+00" IVar="3" NCoef="0" cType="1" depth="3" nType="0" pos="l" purity="0.0000000000000000e+00" res="-2.4954259395599365e-02" rms="3.3090704679489136e-01">
              <Node Cut="2.0000000000000000e+00" IVar="5" NCoef="0" cType="1" depth="4" nType="0" pos="l" purity="0.0000000000000000e+00" res="-1.4922204427421093e-02" rms="5.9884381294250488e-01">
                <Node Cut="0.0000000000000000e+00" IVar="-1" NCoef="0" cType="1" depth="5" nType="-99" pos="l" purity="0.0000000000000000e+00" res="-1.2091813841834664e-03" rms="6.1137163639068604e-01" />
                <Node Cut="0.0000000000000000e+00" IVar="-1" NCoef="0" cType="1" depth="5" nType="-99" pos="r" purity="0.0000000000000000e+00" res="1.2786668539047241e-01" rms="1.4532206058502197e+00" />
              </Node>
              <Node Cut="1.0000000000000000e+00" IVar="4" NCoef="0" cType="1" depth="4" nType="0" pos="r" purity="0.0000000000000000e+00" res="-7.5140193104743958e-02" rms="4.9564272165298462e-01">
                <Node Cut="0.0000000000000000e+00" IVar="-1" NCoef="0" cType="1" depth="5" nType="-99" pos="l" purity="0.0000000000000000e+00" res="-5.8435248211026192e-03" rms="5.0981879234313965e-01" />
                <Node Cut="0.0000000000000000e+00" IVar="-1" NCoef="0" cType="1" depth="5" nType="-99" pos="r" purity="0.0000000000000000e+00" res="-1.7718678340315819e-02" rms="5.6501072645187378e-01" />
              </Node>
            </Node>
            <Node Cut="4.4000000000000000e+01" IVar="1" NCoef="0" cType="1" depth="3" nType="0" pos="r" purity="0.0000000000000000e+00" res="0.0000000000000000e+00" rms="0.0000000000000000e+00">
              <Node Cut="4.0000000000000000e+00" IVar="5" NCoef="0" cType="1" depth="4" nType="0" pos="l" purity="0.0000000000000000e+00" res="1.1449345946311951e-01" rms="8.5034900903701782e-01">
                <Node Cut="0.0000000000000000e+00" IVar="-1" NCoef="0" cType="1" depth="5" nType="-99" pos="l" purity="0.0000000000000000e+00" res="7.0440606214106083e-03" rms="9.0186077356338501e-01" />
                <Node Cut="0.0000000000000000e+00" IVar="-1" NCoef="0" cType="1" depth="5" nType="-99" pos="r" purity="0.0000000000000000e+00" res="1.5599012374877930e-01" rms="1.4162552356719971e+00" />
              </Node>
              <Node Cut="3.0000000000000000e+00" IVar="5" NCoef="0" cType="1" depth="4" nType="0" pos="r" purity="0.0000000000000000e+00" res="0.0000000000000000e+00" rms="0.0000000000000000e+00">
                <Node Cut="0.0000000000000000e+00" IVar="-1" NCoef="0" cType="1" depth="5" nType="-99" pos="l" purity="0.0000000000000000e+00" res="5.2286439313320443e-05" rms="4.0150153636932373e-01" />
                <Node Cut="0.0000000000000000e+00" IVar="-1" NCoef="0" cType="1" depth="5" nType="-99" pos="r" purity="0.0000000000000000e+00" res="-1.7632571980357170e-03" rms="7.3515075445175171e-01" />
              </Node>
            </Node>
          </Node>
        </Node>
      </Node>
    </BinaryTree>
    